{"weights": [[[-197.8306642723513, -81.97718360337231, 68.23411972745929, -152.1421125779569, 153.54905427820742, -42.67940527274072, -8.673558753638783, 88.40804155943646, -30.963795859689675, -12.457457639147602, -12.856449217225151, 72.07645016250405, -56.03686555094054, -106.10148268754799, -121.01865054556411, 42.294588646088734, -55.51415721641244, 209.90150895551938, -3.2414233817963547, -53.4169565219091, 55.41436320665343, -1.2329986186089528, 35.69467285418426, -70.77920656596183, -19.36804530822035], [-234.17217973294902, -222.98503617988425, 41.65257735376265, -104.93365706022838, 332.9144576033428, 222.87245542802742, 421.7258479151407, 63.004176908473966, 9.504327242851689, 79.06536636417266, 133.10375274324917, 32.59329246427971, 51.54087094522962, -80.2750812050989, -515.8720630448585, 295.77906327852446, 186.54403129415562, 151.81105626631543, -104.46813189962005, -424.15322674768817, 71.06970437540707, -17.666404088842544, -63.454541294541706, -206.4290699309492, 10.33560404488208], [4.918759434424624, 37.23588596509506, 89.70162769990971, -72.65006837381127, -89.88920130095711, -110.24306710012927, -200.92790907898421, 93.85605234657945, -5.55745918513831, 2.107130472037623, -46.546702649032596, 3.44914431089946, 4.862966698214829, -100.31264158398866, 275.8227043663835, -132.96388048291365, -95.20947705229308, 62.63096394146816, 24.384045250012804, 200.9722402653259, 39.18299033064779, -60.94458671985537, -82.3471026901673, 56.30701614426851, -62.37197653763531], [426.95741285053464, 145.10659159065483, -126.89467366110267, 348.51733820879645, -270.12183169377573, 204.25220705003986, 181.35766514309927, -171.28971887781933, 102.37524152461184, 87.0525630282449, 80.60167004983482, -200.38351050708653, 194.84916498997944, 233.67551644675132, 148.25781528328784, -0.4213150378991636, 227.75455698747083, -494.82583931896653, -41.01531436803587, 1.0721868240901617, -109.99854235821721, -28.33396887291197, -172.5800532399781, 96.85732622053389, 20.248841902277768], [107.70646243888804, 113.5588478409111, -79.69379541127826, -151.47949876523072, -19.925115508954473, 976.8985582806482, 1080.104102638151, -61.812530260115516, -302.0859845032904, -34.21917369733408, -203.3168677762515, 81.28658468379942, 16.89367828868642, 34.683341364237535, 349.1454415283123, -170.50505548257996, 1006.9664496837975, 82.85052988605956, 173.29876222749763, 66.46029840211854, 31.30298193964097, 154.98897943484178, 97.73550166194737, 233.64808560892735, -32.723177405125675], [-168.27282359281529, -62.12723572139675, 327.1699798280497, -305.2736251768492, -36.42594402380811, -216.7533720014184, -356.6115778427529, 357.910492373254, 3.9939931573375294, 77.71039369260666, -30.151214325242588, 28.212406975121112, 69.26620518218397, -400.8154649539665, 475.8634731634711, -186.2005942763045, -198.0965257180019, 309.94375834382777, -20.215725416064302, 306.9602844173592, 191.15343311057563, -227.21648039687562, -340.762098881372, 11.691897376647482, -188.93005156863651], [-42.93932253045081, -20.540099119493462, -47.851052890075486, -3.1170913153959225, 34.90898550070883, -26.37554111502161, -10.508961274389732, -43.66936271702565, -33.861636187242034, -50.122604704212876, -23.25531066214211, 39.18960241675142, -63.22483678529916, 20.708241918350005, -74.60742496336145, 5.205474797409674, -32.336380211041025, 37.497513803388365, 19.472975611165584, -23.480907905027028, -15.256487379035457, 55.12926379360349, 114.25653178687496, -3.1827422580804137, 46.435529085685246], [-30.474868692830487, 165.6247884539438, -339.3421319345221, 74.77099508490593, -46.38860428151499, -270.61585618459577, -326.2218687678553, -343.19359492712726, -194.77830656133264, -346.7536687834112, -265.90874423145704, 203.0220431587724, -440.1620152568783, 313.13962907531646, -73.97655044814266, -178.70049861860102, -276.01690768644306, 61.60928869245625, 230.80986248564608, 189.9422516825668, -188.03566034233796, 387.91337962216807, 796.3188716875522, 160.9832437257875, 237.2554036118549], [-42.60740773813256, -55.81403358846721, -21.785901571545384, 6.456383810404555, 103.05054992160747, 104.49570213132701, 178.78649949458728, -21.015505457278007, 3.8769803791439226, 21.33888627505797, 46.00735387508419, 2.2559567119854402, 15.347812011382285, 24.920518600506938, -199.99487928554956, 112.01298160680548, 92.4720261249707, -0.005846794335210348, -31.734785297018078, -161.11196759777079, -0.040565201099523565, 17.684120122732644, 8.251305081035861, -62.13822206329155, 20.77996555920281]], [[0.18786006700054264, -9.791367552688302, -8.472608379607113, -3.5723196005548488, 7.451116624254452, 4.713041203542222, -11.950207160672539, -10.54445970185239, 8.875871575170745, -4.193603555372886, 1.945298624523768, 6.912294150934731, 2.217552869210303, 7.476884814167533, 3.521238134848445, 26.75658907562807, 5.6162103623524615, 6.72256538657557, 1.8852465052378242, 7.5840857683347895, -4.673561206016232, -5.584987144393584, 4.159641749421447, 9.025951205637691, 19.34944734955766], [2.9449491278831457, -3.7562622658012903, -3.6734888415042666, -0.8306664283615968, -4.163318301393845, 4.049447351381827, -7.525483363001689, -7.4728039413972125, 3.11399020136774, -7.045447550355449, 1.8494172567509735, 6.916690260405668, 4.3741927815142825, 2.986634765527628, 1.2963709763702649, 2.600629250543423, 5.284910074880714, 3.217229329262446, -1.0381032679044246, 2.7989851971856035, -4.531871886662782, -1.4359342722625559, 1.0322898102845328, 2.942798286828348, 12.402985973880007], [-0.7305928695118357, -1.295411868099373, -1.5595640239402264, -2.6639848474186234, -1.3488893706825116, -2.0997743937751663, 7.521533664046792, -1.0089832365163296, 1.3259069239143713, 0.6497468523383305, -4.049536394306847, 1.8157333261214954, 2.690095156845659, 1.7579318272484796, 2.139989457775887, -10.620930298808585, -5.023440538377611, 1.9315165211808742, 0.9477682352495161, 1.843345149713768, 1.6522574999999358, -2.2635917410738076, 2.5756675310596684, 1.3428514207947753, -9.637323819609165], [-2.0216632573954665, -5.657012179287174, -4.08160855967873, -0.808868879571186, 21.007899269046018, 2.7891971279793943, -11.388743793846949, -2.7374511427021524, 5.318648175429571, 2.0604980076841173, 3.542165706763589, -1.4029746481491994, -4.552919380364225, 3.544329009530262, 0.6705503676211544, 22.632031846911854, 4.744317655567991, 2.327911310038303, 9.317120713247494, 3.8060800190138213, -1.9625796430409455, -2.702486742739621, 1.3121501566457172, 5.643019735653781, 16.085180095609495], [-2.458713231945651, 9.302465656262681, 8.671358744550297, 4.144957091369759, -2.9873180083371946, -5.039202543112448, 8.89811549285636, 12.849936034606525, -8.263777537988817, 8.293046507108581, -0.41592923747889227, -10.804514550842827, -6.540509980397739, -7.635824704521154, -4.243686781204483, -4.618719499950735, -4.9183896997214935, -7.54474317225902, -3.8962980796995694, -7.575309449360797, 5.7516369725859775, 5.539427180586447, -4.586636335057292, -8.203376288794745, -16.033256659450082], [-0.13831398662207375, 0.7137947911816728, 0.3472637394555864, 0.13098634686193117, -37.789477483558386, -0.6084141679981845, 1.0848250862177675, -0.7835427410840788, -0.797614353595643, -0.5739809915010918, -0.36704728751650095, 1.9796915798481942, 2.145743366806619, -0.345449975718905, 0.057682961256704225, 51.20559253483775, 0.021911554713445816, -0.0033739207921870944, -32.88942352385174, -0.49583550399363135, 0.7864080088843862, 0.47521310585811743, -0.22276651676981646, -0.8877507100807905, -1.2432180426064878], [-2.2098601944175713, 4.432325763150452, 4.103656338557953, 2.179978586541572, -39.628237937923274, -2.8592307741252188, 3.30518747140683, 5.603170062700765, -4.033140359301144, 4.735732560580417, 0.2176985678597025, -4.234331065532242, -2.4920532887595344, -3.656100396831004, -2.0760595274660636, 63.410909516503274, -1.6008127011267739, -3.5610389306792354, -37.814204631869075, -3.715151877013907, 3.7062232559060164, 2.833056955720465, -2.392786907406639, -4.006926540551891, -6.275969677736238], [-0.5776398954434306, -0.4065395667908085, -0.8655947371917991, -2.4676334550732384, -3.8694248831396134, -2.5623126102442, 9.069576417233908, -0.34590903363357717, 0.5039157104349165, 0.6565307879545115, -4.472043636213313, 1.6733071390408885, 3.023219193091882, 1.1534123209939287, 1.9557526484482373, -13.174413127475198, -5.707548523627412, 1.4671560923597542, -0.2805032902722828, 1.2107102152434577, 2.04018169444877, -1.8150016258629542, 2.3095109721514953, 0.48728716804151023, -11.916207171610978], [-2.927169531164079, -3.432480863769132, -2.4147210291102668, -1.6318158703458847, 20.130977226603743, -0.483809745176334, -1.762610991836344, 0.3750084547039656, 3.451534377728806, 4.511910615154484, -0.1216510363553446, -2.8793121777263355, -3.798345695292226, 2.383466994954442, 1.0672836418082017, 4.642149613183816, -1.0804796307800137, 1.4577839903577199, 11.132218639699937, 2.7031742721747567, 1.025846750754437, -2.611749415639331, 1.888682783767273, 3.764605044772477, 2.2885494673313542], [-2.6980564873613537, -3.1093170494901337, -2.479553640818407, -2.344024978090104, 6.377418165789354, -1.380741358085302, 1.861014389707922, -0.29201901422531285, 3.116386131881709, 3.7638298182464793, -1.8028005438984216, -1.102323442364409, -1.4541877151618843, 2.539055302079742, 1.7308835220018537, 12.16810392316856, -2.8836550945729824, 1.9430298820943033, 1.2412846496530425, 2.793537848519344, 1.682364992205066, -2.8926820009656384, 2.495390104533184, 3.3535215439003396, -2.327470657141998], [-4.139193989235503, -1.597341172406562, -0.6449041414340176, -1.0245283491300494, 16.60571748972561, -2.1287764714778454, 0.9913808165608105, 3.5675886467180575, 1.8779552168263847, 7.3958747211854945, -0.6262388872830761, -5.734435185037905, -5.598405758051248, 0.8911089802893557, 0.33590903892023044, 11.668025923434337, -2.9167727361520153, -0.09429622188400602, 6.785800504386165, 1.2650309371830473, 2.9352471320862388, -1.730439516871135, 1.1897917754303131, 2.2493665520361206, -2.4041182420304845], [2.0330577124543647, 5.158533982520659, 4.16222502283469, 2.3948285241428295, -11.721733769500297, -0.7014863159290052, 3.613195790989716, 2.911033123738695, -4.906781899290964, -1.8934667487606556, 0.0206927561415724, -0.4054124878753946, 1.429840912997754, -3.8832038461161704, -1.9609920349797334, -14.786240209653688, -0.2898315647261814, -3.09740897235633, -4.809852126136166, -4.124642047407456, 0.356235172802754, 3.5476607563167413, -2.7163997807384455, -5.155567178178452, -5.80063503969495], [-3.208762199450772, -5.896003065834998, -4.904308616883579, -3.781930767555982, 7.611864326189875, -0.8118500095784821, 0.27953180800713523, -2.757099581640178, 5.70357140579812, 3.5731011914409674, -2.079048168437776, 0.4188925948420267, -0.9344500972437063, 4.769669048808089, 3.0072056604975437, 21.235149443785563, -2.608828971481669, 3.9354942420808707, 0.704392120575028, 5.0955432845088495, 1.1426191072729013, -4.820635589716792, 4.075383653028021, 6.017680631467674, 0.6006877330033971], [0.24334642788802652, -0.702931185394668, 0.05633152143747684, 2.3382414558937747, 7.6786261036822046, 3.1703559836047943, -11.436458413966815, -0.2614139318306393, 0.5317146809859191, -0.36991124275875925, 5.224309432010417, -1.8650910095563218, -3.861422062422785, -0.4625090238696179, -1.8475463957810259, 17.855218167610794, 6.7477154021791454, -1.0082230126801648, 1.8983835972156118, -0.47053926721806305, -2.4937964517693336, 1.315961799272937, -2.0810331016049144, 0.6044905349175311, 15.26513446842014], [7.308808450015308, -12.3037474784263, -13.019537095875878, -7.956343391238086, -24.66917154670921, 6.456302716164493, -2.909279291743613, -23.23629565757109, 10.584013849823481, -19.395848116354863, -4.213870825026638, 24.383078331889433, 19.660745919860283, 11.58641749760447, 8.25568939834055, -12.915695404806845, 3.4082888958355704, 12.952450161679483, -7.583258014083324, 11.142105819520438, -8.978282771888743, -8.398062407704256, 8.220341701170558, 10.063087162495005, 11.402394074173369], [-5.245411365430137, 3.696578434826556, 4.470912985854864, 2.2368738950291593, 15.590754964324164, -3.886798532395247, 2.3400113586519953, 10.70495308454382, -2.889007377038886, 11.61556964925353, 0.9082115638608987, -12.204674167710447, -10.273166212281591, -3.7655071155591147, -2.769528576810774, 15.293493133878885, -3.3651838114408275, -4.816399884050088, 4.048780935724087, -3.388082770360911, 5.293797976343617, 2.0537686597054132, -2.251960517119214, -2.484223798509446, -6.553868334633615], [0.3062392178648891, -0.2785321592260605, -0.6476548255265574, -0.4086844693796522, -39.21622158348281, -0.06696956765778628, 0.47120249339908704, -2.4537633082462067, 0.06558451565927219, -1.8505181101275094, -0.5089639708361666, 3.606675893761722, 3.345232877824264, 0.5328808439329674, 0.6200950575007972, 51.66086834531972, 0.45256517951491254, 0.9329971618658984, -33.476909248727075, 0.3573247678786358, 0.10512569260690655, -0.15217478809144586, 0.3499661680602083, -0.05146922116931042, 0.11435360246425932], [2.483456591859096, 9.58116523409756, 7.529714167473037, 2.765481275564197, -22.31844888070096, -3.8144287534991292, 13.919771705090161, 6.539005492362013, -8.93627996840233, -1.2724190927642751, -3.2871337154022666, -1.1616766694950869, 3.485077635415039, -6.697414234730222, -2.4462874070599994, -34.45361301490489, -5.430143804173388, -5.1808938213383895, -8.60309896126411, -7.0363328885034715, 2.987120614872841, 5.336321659590765, -3.469708390272874, -9.343352172645256, -20.702232705100162], [3.1941178897631937, 1.2000332193376442, 0.5294459145227487, 1.0111022628369832, -12.687491504371307, 1.9012731017708637, -1.7523946633189103, -2.746319786405269, -1.4284194548557962, -5.7058558700125435, 0.9451645316103108, 4.238049769201739, 3.971665703782339, -0.7518673276464338, -0.4345298096121888, -6.5481444863859375, 2.836670581720194, -0.03908025186069048, -5.584252409521362, -1.0424733268208919, -2.4510686138636313, 1.4697706511082975, -1.1171419883817628, -1.7095675738394018, 3.1621924481449484], [6.485643062327609, -6.162819694568495, -6.9549719479056735, -3.695660580310264, -13.112225030592743, 5.19505726259557, -3.378855041787586, -14.728964824922748, 5.055387427497827, -14.83712962576707, -1.494381794316043, 16.088366586140243, 13.2075914200774, 5.973398744227175, 4.236092605288695, -25.10948021528144, 4.103081797973137, 7.175083587554511, 0.23791962552188353, 5.555735903079994, -7.049378687531624, -3.7050266878902325, 3.7864274362816963, 4.585737551432924, 9.255863330470936], [-0.38241986212531404, 0.6111487953451941, 0.22804593030846382, -1.0796446849123762, -5.554392444005769, -1.8668910103051546, 6.141969467909789, 0.5922973500725576, -0.48771970797171454, 0.6800354712359479, -2.6799208684480025, 0.5484720468070289, 1.685278580543558, 0.023104993857513786, 0.8168807252509019, -5.610799809902286, -3.6747418740154734, 0.2748742504560628, -2.7475675544945624, 0.0337667063126527, 1.5913613854248403, -0.5318131024119773, 0.941496679799097, -0.5150960597392666, -8.359007992388273], [2.201711340422834, 4.315670805275202, 3.8063678764677267, 3.608728772968045, -8.701212399942616, 1.374638894496062, -3.6343788051597716, 2.176794232347368, -4.215657729239016, -2.3970411316499654, 3.17247151472199, -1.019570601774454, -0.5829896388101955, -3.8136932952566176, -2.873216428049844, -0.7384157539545878, 3.9608483261522487, -3.362552175151393, -5.150017523473355, -4.065666098302423, -1.3172835674251444, 4.084369611213953, -3.755538191023155, -4.419094118797334, 4.0536998850256465], [4.626508681800235, 9.402206632078327, 8.216108536791415, 7.235724787971777, -11.776171837684208, 2.254511614820925, -5.240643719086015, 5.164174527032385, -9.109190274505465, -4.720501927509019, 5.66892492958747, -2.449425554770545, -1.0089435265520033, -8.11920620051633, -5.821006208920672, -17.340745712044097, 6.8264457943572605, -7.111101350589556, -4.032514991685847, -8.617207426576693, -2.3083624398187803, 8.430590271083648, -7.593389382881432, -9.54071882000812, 5.159435174352329], [3.569020166052972, -3.210196680391899, -3.5363998392814273, -1.295529605891403, -12.593180356579031, 3.4667674154273787, -4.405544809585731, -8.066960185003323, 2.5632819164881075, -8.241948094821057, 0.4625333264032508, 8.563738136882463, 6.584767625727807, 2.921408962311156, 1.7660789461003863, 0.342871164500766, 3.9067964044605845, 3.5102200522258125, -5.752642620807138, 2.6558649657782403, -4.263770725582992, -1.4655551994871396, 1.385640697860611, 2.3055102863668675, 8.44366885525626], [0.004909746661420452, 2.196248606648446, 2.2833227731533254, 2.193859175264032, 3.334531192369376, 0.4264077507647351, -2.9714180695626866, 2.7585728058566485, -2.036911319256307, 1.0711054922867889, 2.2929472700441003, -3.003798080887998, -2.824289883657291, -2.2260173362639897, -1.9223055086279968, 1.4996735316721992, 2.080093580760261, -2.3411709822445106, 1.4079867236422188, -2.252856241808395, -0.0592092179473483, 2.1560111122849563, -2.2072585338194877, -2.024531870502747, 3.0378691775523876]], [[0.21691034728434264, -0.12449917532561267, -0.6534482064735199, 1.6268455635171093], [-1.3800629629296008, -1.7274386235103576, 0.8422283601721942, 2.630259755394048], [-1.2098906102211275, -1.86287713077582, 0.8350205748763097, 2.332099989646067], [-0.421750124320945, -2.146986507307332, 0.21686224151951514, 2.4711180586630475], [0.3726260926308695, -3.6663859830188135, -1.6224201567622467, -2.98469301443897], [0.8824584040967978, -0.7974768141241184, -0.8751956106667622, 1.2383478665862846], [-2.1150390104668415, 4.07507698982072, 1.6856504322324335, -3.334239538813665], [-1.689855501274376, -2.2260531435634507, 1.562738236010402, 1.2849584670009333], [1.23340602601808, 1.6453898808769385, -0.7341625689405071, -2.599547140125683], [-0.9473989686458392, -0.744572969059896, 1.4606689102133714, -1.7993219918524286], [0.4672673715252249, -2.599986560637367, -0.390294364731158, 2.4236162395531373], [1.1688421530291788, 2.6859049087025886, -1.3697389214360285, -0.7251458051970335], [0.43280258701656765, 2.8257873590668434, -0.8073150555878745, -0.6213036705176793], [1.0279835300038866, 1.9100262713772718, -0.6741142663681196, -2.417071652572766], [0.4245373572692875, 1.8551151962955312, -0.24551006520690552, -1.9832904183661573], [4.117453528413218, -3.3288983368482734, 2.7365500330460852, -3.1644429054416308], [1.137615344625372, -2.6927454519326184, -1.1497120662186897, 3.1435967312100273], [0.9275611032894497, 2.052001305821796, -0.6956432466762462, -2.150581736721646], [-0.14391484218087602, -1.406051259627413, -1.94647234169726, -1.1297420891112715], [1.0557217131505605, 1.9198982131099838, -0.6434651539187658, -2.563028854630433], [-0.8850283821389013, 0.4413649736861862, 1.0098033024176067, -1.2118477965299164], [-0.6983074811373917, -1.9864729227304607, 0.33114557039375664, 2.686860286688997], [0.5030901274516845, 2.106503708088659, -0.24037330813800079, -2.534295732021201], [1.2299456724643152, 1.6154236380292162, -0.6807316361448518, -2.735797631327012], [3.365163647824688, -4.643255923353318, -2.7614648416994636, 3.953760940968017]]], "architecture": [9, 25, 25, 4], "have_bias_neuron": false, "number_disabled_weights": 0.0, "alpha": 1e-05, "batch_size": 1, "what_act_func": "ReLU_2", "value_range": [0, 1], "q_table": [[17.679818297840242, 30.443838905744002, -44.833866794758336, 57.4204587158099], [26.034822829881787, 21.44304577372451, -72.62027424200106, 41.90761414724605], [15.964592991108665, 28.466233395424144, -69.29002094861319, 1058.916992401842], [-44.72629664012017, -81.77856152226772, -43.6059672129653, 3.5468660632624043], [1066.8587215272146, 1023.161019886013, -28.819896342783125, 63.49270774352607], [1062.0902356475876, 42.29805332879143, 31.42606966871659, 17.099703889240292], [3.9690682147040075, 37.59455601316033, 6.783767732786864, 42.11031555383468], [3.849590988930092, 60.0857472171904, 43.13870466086598, 43.10998915691548], [21.05315867959388, 26.70261199127128, -77.62294505696026, -80.2409742761983], [49.34619927989756, 41.4729191111215, 16.87318162614354, 38.629417189942245], [23.400683977862535, 37.35033781977043, 13.47388067252861, 26.78482649645981], [10.482368022679857, 22.06028806669412, 1055.1184063304943, 1011.4400270397308], [7.4716353130291076, 54.56329550124012, 36.11711622892093, 20.906011487437695], [29.93015676264791, 0, 53.864654252869805, 32.23882113951446], [1040.1657123169527, 0, 29.556144546757682, -45.691378837113874], [9.961467830126534, 1.3299995566928837, 994.0160735304923, 1050.4770755798104], [-82.99935330248385, -72.75530386021966, -62.82169340633193, 45.87303343877473], [0.29353571292104813, 7.441944615897589, 0, 1053.0537265781522], [1.8228738636241077, 41.21440696324001, 16.408862189580745, 72.60330608714561], [41.21172591787132, 19.38288183362634, 30.247737969764383, 39.56155194556323], [32.68655309281771, 23.818098144788607, 33.49343546578335, 55.441989866049845], [18.66475663301414, 44.09611377991309, 34.02826278750532, 51.1806301627075], [0, 43.11442454508939, 2.4117998783300982, 59.985234069718736], [984.6147313091018, 4.161414240805883, 0, -60.83197823369554], [0, 62.7025647762858, 15.967588311877686, 29.256031590037296], [-54.95510973534837, -73.78514560848375, -87.34376351793533, 1030.1413570699233], [-14.84942954519115, 27.043668485529025, -35.00219809930151, 16.46271794804476], [9.764932501568113, 71.89186362436092, 30.7418910292777, 50.27633472157251], [20.56335152167854, 1023.3630530963933, 36.84387533475887, 28.277877396631563], [27.885255916860256, 8.916783085616665, 0, 4.367172413647755], [3.476652035211577, 0, 0, 1066.5003658916999], [-46.855519254486964, -8.4450806497778, 0.8534576688448609, 24.371153916009227], [21.820099861424765, -35.24918050883328, -38.78693644071273, -21.534608091748524], [67.48088730591785, -58.27720370668754, 3.073469769426195, 44.26491024635391], [6.590566254626791, 44.33782299865409, -64.90453848954387, 1051.3060276499457], [39.37064846622225, 62.29524525164528, 36.72986101657192, 43.806454528204235], [998.8656856136017, 1018.5707512996555, -24.919770450172706, 30.843010470966895], [0, 2.97755880316908, 19.417237038566014, 33.1847798642105], [3.5348924815980216, 1025.8889198861452, 13.040622099309294, 21.172479207741272], [0.02119936835911783, 35.31209710839775, -78.17192617451771, -4.005409364144743], [-51.58044720149451, -65.96674213499506, 19.630114110348053, 39.18196415767416], [3.9748124600261776, 0, 100.83386283051024, 0], [0, 5.295551731111248, 910.2918428158105, 994.5748422860477], [74.10177766189979, 41.69314152551157, -8.147633038073783, 15.170753874259697], [0, 36.30219040960168, 1066.156003753099, 0], [0, -8.516124551160857, -32.85242862245963, 37.023677502759305], [1026.199047870524, 1059.4169396083666, -66.51784343973048, 12.859515590322752], [901.5595322660993, 0, 0, 68.15999801455912], [7.98291075229322, 0, 37.12036247141951, 60.11358997748826], [0, 47.57028302888036, 12.602848586428298, 70.10083056614423], [0, 45.07383002733776, 49.18733493629356, 60.43156302542522], [12.670716000434197, 23.694350513326867, 23.47273980756704, -81.07359416785326], [8.189447192555242, 18.835596457052983, 12.116955348077644, -15.499838135251283], [46.11583305880694, 75.7727905564021, 19.324249336084353, 41.31419601625728], [-30.96083056010869, -63.38946139972977, 13.4267733103382, 79.19101136626276], [31.083134480986033, 56.94797058229945, 25.01786282672738, 24.28019628066437], [55.68309433672616, 61.420272751430076, -64.80452849108734, 99.622987574793], [0, 0.03215840369853155, 0, 0], [4.564380916872587, 89.51302020991707, 20.4432116544758, 80.1437825498024], [962.9111504437635, 1031.872305180997, 0, 56.77621245140011], [18.53430179818265, 3.3156713432575087, 0, 38.3533029916105], [13.16015123544123, 28.324226594531797, 70.40137661930551, 48.9171903189126], [40.6306106498282, 58.232909252618555, -47.39549912148537, -54.58468542696936], [103.46777396549739, 0, -18.679588359664308, 68.56440405035231], [1080.5802530780734, -71.04252138931338, 4.003875619101486, 10.306775728136941], [73.14744359994171, 0.4241654301730743, 0, 1077.5037163609832], [41.73628852202313, 1.2805734611813624, 0, 41.607837247678354], [54.55698672436897, 13.18885007931119, 0, 10.036343821560807], [35.46034231655772, 53.8737835031407, 38.36482611280502, 68.2772266416198], [-17.081179630378536, -58.382864876448785, 0, 1019.9997819455959], [0.8976132039097995, 5.22034177038811, 20.983101883457664, 45.44512261875202], [82.01325614337091, 0, -34.14410643183706, -17.703471547435512], [6.943653897041833, 53.59286847053009, 1035.50298646075, 1078.4221789023077], [-33.37776562604747, -72.28552523524644, 212.7388255955276, 51.48403802704125], [-26.74081302887035, 78.60546719128145, -31.76765517874114, 0], [0, 49.51099877130659, -9.019705488292628, 0], [-7.770846815990616, 49.40504832404747, 0, -76.7717110047405], [6.9262406373997045, 48.52362884107975, 0, 20.53083303981701], [9.500562243149334, 0, 23.214244262875802, 4.101263328763701], [29.736736091854095, 0, 0, 1045.164818089612], [5.947724228394335, 20.09401292695587, 42.381115002557536, 826.261105978956], [16.568722574227756, 14.849797242434999, 54.953152645613784, 28.95568031861808], [25.344312859390335, 11.286263402305138, 46.922097558109, 9.10768815271014], [16.63726654946914, 24.973728818343147, 1054.8306590878967, 23.33645245258206], [24.442101687859086, 65.51964774387643, -65.83163498144398, -80.1333617016667], [-62.93350545147366, 18.74863549368024, -82.38176791011061, -44.79268293761196], [7.930916647263734, 16.32349892231407, -9.297400755478185, 27.493395857512603], [870.0477008353305, 1018.8297427041125, -56.248241154608266, 1047.2298207165393], [997.5420046649632, 21.082139492499955, 38.74012007459735, 33.96077846609127], [23.870821170365403, 0, 0, 1062.2215475755143], [0, -89.97380544594105, 706.6836634225976, 27.524861059357328], [37.53833752632089, 0, 19.195387759604976, 0], [0, 40.29276460271742, 1.2660878448814143, 2.693371877006907], [0.622367263352609, 1046.7150295545684, -58.316705416744654, -68.42381201414118], [0, 2.7504152760570557, 0, 5.770739620844742], [0, 4.588806836441559, -13.188333923473932, 18.637817897307723], [0, 38.47127794054671, 0, 59.16744092446534], [0, 46.560867484517594, 414.1975340836134, 2.9133768043054356], [-71.79136738673935, -8.16071731984921, 0.0, 40.09928267523689], [0, 0, -45.12486974555554, 0], [838.3495618676341, 1040.7405022147102, 2.838677221576805, -76.16628460793368], [1071.04794329378, 50.115056281507535, 39.282357333954494, 47.68793533449745], [13.365272549797627, 5.801653874874197, 22.522606929809424, 42.686092460676214], [31.16406599789975, 20.35627804744574, 35.27369374778484, 85.67077179917031], [2.5235184225923444, 46.84886717646522, 0, 1031.3726985183591], [6.102783898394545, 49.340737583031206, -24.899665783793797, -12.275548784622506], [100.94626923537905, 0, 0, 953.708148608671], [1055.623910229164, 1044.8834021850964, -56.78775045957912, 0.45261061038708894], [0, 0, 0.0, 0], [0.002031779521943863, 0, 0, 0], [3.902916779958374, 0.09478632909589331, 21.337174430544295, 0], [-84.70274217976475, -83.96458940384493, 18.78405567743535, 19.38581637798318], [0, 100.89761320390981, 0, 0], [1059.5443145444551, 20.716538100212134, 19.82069522231339, 12.9754333123622], [4.390080458562408, -41.70988845049618, 2.1739633504969906, 48.64426724578144], [2.969673104845242, 18.786507814377885, 0, 49.60509684146853], [1064.5440567326636, 35.61264295472339, -65.92248385667843, -59.405808301204345], [6.198666846990774, 0, 56.86990895808767, 1095.0533261496976], [38.40089790272044, 25.9605187378279, 23.99772498210974, 47.98231934340955], [18.950312196664765, 47.72131102607013, 41.095545133875014, 73.12049113251452], [-67.26239874213141, 93.69649243161658, 33.38040112559081, 15.410997644022846], [1059.8210801686287, 1019.8662563766144, 18.973738403450046, 27.61433422266271], [0, 34.85893652043316, 0, 17.873670460741476], [0.8657278928090962, 4.479612716946784, -24.048011869806096, -52.462379605525385], [0, 101.15469972975662, 10.463643734984808, 211.30916782891472], [0, -45.135365212940755, 274.420280003392, 4.1368726020871325], [24.451549180237503, 3.504189879107878, 211.75354235685646, 50.76623443460332], [53.400098140308195, 0.29353571292104813, 3.745350424010528, 73.21900638372065], [0.0, 0, 0, 17.218450272721647], [0, 1.3077745356602457e-06, 2.1934145671052074, 63.60831152880236], [20.98728885414323, 1081.6850347865836, 46.360904780121665, 64.1968138599822], [38.86380616803608, 21.1646653461417, 924.6312879188644, 1035.1262872463872], [24.51187388478157, 37.42915456576436, 21.72295204813898, 38.61454940134324], [1.4221695515525905, 7.91110443451019, 0.876288883018991, 25.137880825884597], [-39.1667289786228, 0, 10.817862676041203, 66.9476512624916], [-66.74408515312959, 1030.5168860169472, 0, -9.52072500525569], [33.37413972460806, 20.684289047651156, 0, 1016.2775919802406], [411.1524081857973, 100.51477101126282, 0, 0], [0, 899.1158318035783, 0, 3.6720111602759165], [-15.073692993775554, -86.15056935115241, 0, 100.62572275246993], [0, 0.0, 0, 2.3802118512410853], [0, 12.808022689194852, 346.8481942050902, 1048.809479299324], [0, -73.41912067654198, 7.461003654971945, 1022.6899007325123], [12.362068413292434, 21.337174430544295, 3.861651244245518, 16.749072690347912], [-31.98780717661528, 10.682228691407321, 943.1877292988005, 0], [-46.37962258962023, 0, 1.6614400888411387, 5.720959425855418], [20.065763480424295, 0, 292.36119568151355, 0], [0, 0.0, 0, 1044.606447716746], [33.96555960710869, 3.767635165958894, 2.162667265463051, 28.077227296686985], [3.0314816673661644, 0, 10.661879429445563, 0], [1.4171459672820483, 0, 0, 29.255329293723364], [0.4309855445114911, 21.438417773322463, 0, 0], [0, 0, 1001.9017873759545, 977.1770326799286], [50.76493037179113, 34.84567689827404, -57.664169750430375, -84.34451272753023], [0, 1.828208056467008, 789.1896991654222, 1073.337409922571], [0, 1.7439657992163538, 0, 651.1702657210235], [-26.097529358980655, 0, 100.87751527799637, 0], [-73.58594039956579, 0, 0, 0.023688513591955777], [0, 0, 1.78710949307378, 913.3857268041703], [0, 9.633816713785246, 1.4497226699312367, 2.30347180733452], [273.1676833032316, 630.2927586772605, 12.710637285092599, 777.9076991967419], [854.620905174263, 191.77876800496082, 0, 875.9652819958746], [4.517032637152837, 1026.5648367427427, 12.784981002320793, 31.074999404241325], [939.8065940703926, 19.148208882075526, -9.089162596372798, -42.60759127640998], [827.8080900298153, 27.068610623022913, 7.2912544321932655, 50.07519985507544], [14.854935674905747, -6.534625575874134, 9.110894091795634, 3.756437746165183], [8.232664085750118, 25.57571215747228, 1042.65969366485, 0], [21.1054545600258, 23.021312072963696, 0, 16.87146735109968], [49.25666021425071, 19.99225211217054, -15.418499453570579, -61.656838124896986], [1.9657395504915272, -97.30682679269198, -71.25661277822175, 50.08224515586422], [44.45484654567022, -47.390532556674614, 19.304500210857185, 8.986159032187677], [0, 30.68346762841368, 0, 1063.0615723537337], [26.766692391606508, 1033.1268966172279, 1009.1872589685072, 1038.278243409569], [29.797346837034624, -62.54096048161958, 77.23754092237048, 7.506045060917148], [-81.98753961265953, 0, -47.70449594461366, 169.8476492772336], [-52.4095313310172, 0, 33.82634596129196, 24.332774524282375], [33.17994078253232, -81.40385419872572, 0, 14.753899854543969], [37.69145102490497, 12.508018268530414, 0, 91.63326780528581], [1013.5199846084815, 1065.1682262516933, 20.866322293943266, 39.68068823977262], [0, 0, 0.0, 273.5880311495722], [2.224609893166274, -38.97108439752589, -38.546851077030624, -40.42969999385938], [557.871887688305, 0, 917.363423239088, 857.9763975454741], [0, 0, 1016.4089913353218, 2.0449878515082967], [16.23122045288459, 1032.3592394561538, 27.1180083310318, 2.3139412655168035], [-70.26359362082727, -46.355725806864776, 52.354815367009095, -5.750104799151188], [-0.9260864837838989, 55.52735578437193, 1030.6390556936365, -28.833882601312514], [14.835026888374216, 0, 2.1766867908719485, 0], [0.2113200560546079, 30.398494991400547, 703.2837351075023, 41.80147054761638], [14.997241941950538, 0, 38.195304005338855, 48.55783083873621], [0, 780.8377034227623, -87.16451056269746, -32.707534589069894], [0, 2.4099517938989576, 1.0733421071587674, 101.08744934884118], [0, -31.119525108784625, 0.8019436333117431, 1049.723806986857], [40.5781410869363, -33.94089420137304, -26.744010952338638, -62.24603569250979], [0, -54.83847810018882, 1033.3484455786802, 191.6849914778228], [0, 12.554978782199129, 0, 0], [0, 0, 0, 0.579614831169542], [0.4648082646111849, 10.076863155467336, 4.120399094979872, 0], [11.32320916101838, 40.30170375919911, 9.877629053902346, 3.361146346887611], [101.86938461213524, 0, 0, 0.9487793581141557], [0, 40.144404667925, 0.0895922543389357, 0], [0, 0, 0, 6.230510346056758], [0, 0, 0, 344.83914274620815], [55.4194374257309, 2.4008944221051602, -25.14483666925821, -82.62850826314427], [0, 0, 1.4251210864055157, 35.23798098466697], [-56.79528601404633, -76.27296192557081, 0, 26.015139787516446], [799.7569362903624, 1026.2711333646307, 0.6783312308870333, 1052.701980234314], [2.4240293604195813, 582.4525527048852, 0, -72.14992466331633], [1027.7903432773387, 31.538936890207697, 18.606092984444476, 0], [15.51425634145332, 3.872221447474084, 0, -54.29139409313225], [16.640657908151578, 65.1460850679839, 71.13847567635455, 76.51186715265956], [48.61104188809516, 3.3762087884294325, 0, -10.77677789782518], [45.099073730706806, 1.6380711066076525, 0, 0], [-76.7660728358949, 0, -6.40911024480322, 16.13431865719831], [425.70167706132224, 37.720326015245945, 16.98410591325257, 17.745717516023934], [0, 0, 733.1337642382738, 1.5424760038098697], [0, 0, 0.11203357559836412, 122.00408357945547], [293.1086215152865, 190.94341647542802, 0, 0], [0, 65.37263818536232, 0, 0], [0, 13.449356730649626, 1053.8035076792132, 66.12863160012697], [65.23601271285793, 0, 1.4080515253613974, 15.32285070182128], [0.886871929522694, 15.814393229155655, 1038.1734980977487, 47.27009864092811], [4.879093081559206, 21.38808635799921, 0, 12.112363972119137], [18.064101567055577, 42.303755970615384, 0, 667.9607846372846], [19.721598944655273, 3.2978953530240203, 411.83507090164625, 34.988681416208124], [-81.72310277804449, 31.132154730640885, -59.72608064239142, -85.88104812246115], [1.2746499022629465, 9.631690032314784, 348.6851122365875, 0], [12.254213271608231, 36.35977740630266, 20.36328942057913, 65.31926582938078], [1.7690243930987426, 45.27497760258495, 17.61076669505048, 0], [0, 1037.1962979413795, 0, 58.6977320885817], [32.880051986510765, 27.3438652507267, 0.9474990595926721, 30.0884073644778], [619.5621341370112, 58.950827302614215, -9.196349717827612, -31.75209086355404], [-45.978318626544976, 20.401860251946868, 0.48612575105900885, 14.887945666574268], [-4.6203321909996795, -56.51714798868812, -51.956259713632846, 0], [0, -77.72177842924759, 881.3191766154074, 471.19893598580137], [0, 847.9428428777157, 11.186063592609043, 22.24167255835653], [0, 0, 976.788921590099, 0], [0, 15.568279052969425, 0, 0], [1025.9340424435477, 12.790660389020866, 0, 0.010471587735009563], [4.3798681445052265, -55.65995571522288, 1047.2736506298627, 1056.188919338818], [0.5898761961418999, 45.611298480804884, 56.68176263353936, 23.72112413757595], [21.277227669316037, 10.367869983325447, 91.30577044963299, 0], [31.840463325876428, -1.8245545807203278, 14.21946192894716, 0.0327670375562068], [800.2763552027396, 781.7669430790123, 13.147423748017609, 21.346620495069185], [11.99051284779663, 86.07362045489182, 0, 76.2031853217836], [1.061171666622902, 1033.622306889499, 25.37741534960155, 19.244303225407297], [0, 1051.4081676695766, -88.00641575842592, -33.077072305682435], [0, 3.6089154141185373, 0, 190.00288023016458], [2.4636205558870614, 475.1640764606851, -39.24706717596516, -9.435791909166895], [0.8976132039097995, 0, 0, 848.7182362630383], [0, 0, 39.1272958754912, 1008.2086228855021], [8.910809918746605, -36.66664860471144, -55.50104118903644, -25.276263912317766], [1044.8501929138424, 1078.148769162463, 14.232694821792416, 79.78576135569601], [-60.212002052467106, -47.86777393059943, 45.457217213506695, -52.73881745379779], [673.2313816103133, -46.7146658300915, -65.2604485945285, -47.396840380810794], [0, 0, 8.48174277115794, 1047.7145751770381], [0, 0, 1050.042165639379, 23.5616393672484], [29.838998608725074, -35.74020066836876, -73.85156456657813, -51.86955946454766], [-56.71876520004047, 0, 1036.6147681018747, 25.966830054529314], [1045.9573780877956, -39.33960929554289, 34.67379545572856, 47.84941677521288], [0, 0, -95.07244815419953, 761.2499581449006], [-26.457326196289024, -40.76259230771271, 0.2333421518642814, 69.81136651632676], [542.9922239553248, 0, 0, 1020.2872672234188], [59.64268010499565, 0, 57.25134340044887, 61.014179930390064], [0, 5.449142017444507, 0, 0], [0, 2.1404523471416153, 0, 0.0066988931028988995], [0, 0, 0.47595953803938074, 22.758055743779455], [0, 2.0662025058871603, 0, 565.1470350036378], [0, 0, 743.757981857616, 7.083597871645797], [3.0880297904476217, -56.72945858650658, 33.76312092124695, 36.176964953486525], [192.22574516523218, 362.62510693627956, 0, 274.0985044047797], [0, 1084.306602463996, 20.737640988729446, 13.632012373051346], [-33.97181507225954, -42.97178457091696, 0.40529224406326286, 44.45710783084967], [11.329039937255075, 0, 0, 211.58537236017747], [1011.1664103819751, 2.2663780739920685, 0, 18.356939425387623], [0, -74.38295512677072, 0, -28.894249509450624], [0.9462692353790418, -35.14691285434316, 1074.584087167604, 1018.6102964620104], [3.279594935329013, 0.10264176159514704, 34.137618954039326, 5.517205491825292], [197.65184292298835, 0, 2.0011626774055027, 0], [412.1279342467923, 0, 0, -25.388538312741392], [0, 30.739113028164425, 692.5672593986304, 0], [0, 0, 930.8591347395259, 22.910570737806804], [0, 1.7902604041983416, 291.01464754873274, 796.4699455944785], [1.372533110561225, 0, 0.011029493568523688, 0], [100.83770175165981, 0, 0, 0], [0, 100.0000451424076, 0, 0.33479057223298175], [1080.225294175483, 920.2826108271987, -26.70552127717578, 1.5510562126140313], [-57.87335243946711, 35.005216274511916, -8.394312796772779, 13.886753134675516], [485.8920349288051, -9.086154332541504, -5.806560129703449, -37.76180419523499], [20.895039171236455, 1.3868649986841175, -63.03787762837696, -9.310336073121906], [-64.00239548352272, 0, 47.867834437230066, 80.16244308247688], [11.337174430544293, -16.892144038382966, -59.879609333514495, 0], [0, 0, 0, 19.456692549883478], [6.692899326957229, 7.197476093887099, 14.933785018463189, 44.78710237632438], [986.1791152242652, 1046.4614052497095, 0, 0], [0, 37.549509881702534, 0, 43.467375978507256], [0, 0.0, 0, 0], [0, 25.072102555705367, 2.398514318817781, 5.762004083126132], [970.8295536965517, 1068.9733741597108, 11.572421351378408, 18.813156460268235], [0, 10.076903793101627, -67.92943613530646, -52.27696462724295], [0, 0.2097254136066323, 0, 1073.6298014035258], [-9.483358831839578, 0, 0, 528.1144039828982], [0, 0.0, 190.65594090656026, 101.72580943831068], [0, 75.49694564131414, 22.630530519354444, 17.31760766591349], [9.547782956704014, 20.451485326662464, 190.04718788395127, 16.039923676070085], [1024.3994804932288, 22.713696613509285, 2.1439142143787953, 44.71381091668931], [0, 347.6628446635838, 0, 8.589717764061287], [0.5166411681604234, 0.9372996603433166, -18.711829283880718, 819.2795312057434], [-9.467745626789176, 18.910771639886608, 0, 34.12616808972161], [16.726610036366193, 1077.5971123107695, -62.731740911265646, 11.050918286814989], [661.5253050097846, 38.51149157198738, 0, 19.12617873147414], [1.5470939518557276, 13.754870546509324, 25.610823885433362, 37.788435887498764], [0, 0, -25.79395004001049, 0], [999.4555514010001, 0, 0, 0], [0, 363.7104888002474, -9.54745038055988, 0], [0, 53.77610552472832, 272.15565068259485, 93.84719567902081], [0, 190.14410444812196, 0, 0], [524.1184011339928, 191.65912163877246, 0, 0.6274864533332664], [-54.541401574090926, -47.99590411693459, 60.50619588168421, -15.824871551922001], [865.2255732838981, 16.398731994121547, 17.270817774199145, 39.25729793692018], [2.9971389504316464, 1064.052534196988, 15.801859685515888, 9.581426179774178], [0, -3.180213462443124, 1100.899641749486, -14.239550165930803], [0, 0.14876088329391557, 0, 854.4427820437846], [0, 11.756853811516395, 0.2264641832203676, 30.800088585660472], [-9.102386796090201, 0, 0, 22.07014045350701], [0, -14.39632400344189, 0.0, 0.6711196998073359], [0.009426656277697619, 33.110501468053, 0, 1007.5419550700177], [0, 0, 0, 347.9850443774949], [-18.859024090297098, 21.461800326854224, 0, -33.78453348931814], [0, 4.1859485020893965, 1.4029813712565693, 0], [0, 24.12231852364736, 0, 938.5694574322335], [0, 0, 0.5611456837733118, 0], [0.0330165305460994, 20.222738356943623, 0, 0], [0, 0, 0, 0], [343.94809741243085, 1062.2430681675974, 0, -65.01550133662528], [5.963284693057577, 688.5661942654931, 0, 474.4134945619952], [1.8571468853685937, 0, 703.5988170948056, 0], [1.4843586802141195, 2.084477446502447, 1.779833141777091, 1.1731957602963874], [0, 0, 0, -9.999673112671779], [1047.9911068982324, 9.68962506516911, 22.22424846290224, 41.67800962436057], [-62.48444794621015, -56.12318377381223, 64.17154576279418, -61.22476144501447], [0.3162733476977517, 36.44820891943962, 0, 11.216096975042039], [0.3053127889971574, 1051.790377332808, 56.791922316027815, 34.24313150595341], [10.086907297112095, 0, 14.727670232380337, 12.444110106573994], [42.787457158904964, 60.838192192605334, 0, 70.03714414025966], [428.77886237014206, 0, 0, 0], [100.51664116816043, 0, 0, 2.584856129882456e-06], [-21.62122538608147, 2.101679397157262, -32.05817800436243, 1.069647726799866], [0, 0, 0, 972.7941081510539], [-25.912902473357082, 0, 0, 895.1283100319473], [0.29353571292104813, 939.1200491979359, 2.7031001978603886, 2.101038694854651], [0, 0, 0, 3.845540065883227], [30.28799774236171, 0, 0, 1045.2401558584472], [274.42545625759806, 21.467267360837706, 14.260612189603405, 36.42594193169546], [0, 0.0, 16.46752407107534, 0.2264641832203676], [0, 88.88555084494902, 1031.6699992145236, 0], [0, 20.629279664977567, 100.82498345473736, -51.04284001375852], [0, 40.001934468361036, 0, 21.535134943357278], [0, 0, 0, 985.6979502970117], [347.3308433673104, 48.743304103865086, -23.51365989868701, -17.29118381457217], [0.03244517151399233, 923.6597486437361, 0.7424482491998248, 31.944541145865298], [5.472370600148923, 36.05828035284739, 0.12580258264923996, -53.57298113967298], [0, 26.491210051853862, 1078.6941328652936, -73.10237832300314], [0, 0, 0.715818159626663, 0], [0, 1053.2365209876405, 0, 22.57724505722115], [0, 71.0854143478547, 6.392398411038089, 0], [0, 1091.222568808578, 4.682875910806745, 0], [0, 15.660136045623057, 58.24428260967265, 1058.1522925068982], [-17.294534912571383, -44.372310383892426, 7.960766009060198, 271.1981796838688], [0, 7.994058201475956, 0, 1058.311985678541], [1025.684509994768, 0, -80.20963601545789, 12.409711535231812], [0, 725.7965679114707, 37.44424839589714, 20.699608510278956], [21.337174430544295, 32.34273325088313, 1.8655708819288956, 33.92111139248189], [0, 0, 0.05387872245023853, 350.8776652440706], [0, 33.72534123966728, 0, 1068.6356472888608], [0, 859.1016106530241, 0, 0], [0, 17.450583024296687, 53.407677476126665, 0], [0, 210.57585758895112, 0, 17.53815249376835], [0, 1017.7246098327826, 0, 0], [0, 4.538926664971529, 0, 998.4718318688562], [0, 8.333047795398867, 31.30375895322786, 24.922681499298648], [1020.0751221779577, 1030.6493919971508, 9.71894289797323, 16.68270282384598], [-79.13412765970612, 0, 0.7260248588684823, 44.46984319720853], [0, 0, 0, 8.288335471492363], [0, 1039.4099682617682, 100.72654165314347, 0], [1.34036191361246, 0, 0, 0], [4.656795538548959, 0, 10.555664335049935, 23.066129368941805], [0, 924.74335895263, 344.9624451484442, 737.9178110604887], [0, 276.468345708069, 0, 1.2784722925298895], [22.128045445357735, 208.76162352098447, 1.8857244578191181, 0.9537750403663964], [522.6832682592476, 10.490216724992528, 0, 0], [906.1631785279367, 8.13641678418502, 2.7196159641539626, 0], [0, 1.6489462991534476, 0, 21.41606741786751], [691.1126880633478, 0, 505.30077502074795, 100.67738081639261], [1032.042688797837, 22.752702800075966, 0, -40.7165626608291], [0, 1.406359975203622, 347.2785691038554, 38.26001450830634], [0, 432.10032483339114, 0, 100.03404095564667], [0.0, 0, 0, 0], [0, 0, 0, 1.8198408379734317], [0.05694959069100401, 0, 0, 272.55410298063924], [524.6391102637597, 547.9450084398674, -30.264129341458215, 0], [100.68260310181032, 0.01948338844664459, 0, 23.699011519735222], [0.5441545818267784, 1022.4334241783883, 0, -46.89852549199155], [25.729896610902212, 0, 0, 7.582138924889686], [1020.9731913458788, 45.12670214087484, -79.13556136117263, 0], [0, 0, 409.51, 1019.3748686589576], [-4.288375383168155, -54.67493433108433, 17.476055936794104, 0.6977433343725805], [4.671493808446494, 0, 985.7854610947319, 1028.2423169002686], [0, 0, 0, 1005.874371109892], [8.153414687658898, 2.474753107869318, 0, 1020.3115875801359], [0, 17.442162215814147, 271.60493502881116, 1067.178477561664], [-36.87873148963068, 0, 0, 1099.777833277863], [1033.8793626527709, 3.0851868975304155, 0, 3.1105285063230954], [0, 15.398699411306113, 523.5195055302896, 947.6162572026724], [0, 0.23062670033247487, 100.89761320390981, 900.7795792335583], [0, 0, 0, 3.3978070363355313], [1065.9534639103795, 34.48413104302862, 3.1253262834303133, 0], [79.4644141861494, 0, 3.240368479184064, 19.283831997354934], [0, 1033.5505238447543, 0, 0], [2.7187418223941675, 20.460433452587626, 0, 115.34832352068004], [0, 0, 0, 980.2726559217198], [21.840624115078626, 20.684043516082127, 0.1979248547148386, 26.814390273212307], [23.164150137165127, 0.4652099139179185, 2.9423944874048487, 2.139785401396215], [101.02703392391136, 911.9851833430992, 1.0266661094782719, 52.45905431664461], [0.8979912751177337, 54.930931012211744, 0, -58.92314525414741], [100.29353571292106, 694.9043289636329, 0, 1.7979961368228268], [0, 38.27831923810353, 0.054213638257901736, 0], [0, 938.2533677519633, 24.327968768235507, 1.6528273124567006], [2.3354483119080305, 16.983419659328504, 52.926922570871966, 0], [0, 1.0595928625919286, 138.938142002216, -40.456434001692216], [777.4885173495783, 741.2442008861235, -18.831078032470167, 1.2316854550962688], [0.6936564416783899, 0, 0, 191.72885950197156], [271.24484271726493, 1039.3390258533846, 0, -25.07274419570949], [-22.988542678901915, -52.761152003970835, 1053.9407658783553, -12.152403180290591], [-53.330232946414526, 0, 0, 0], [0, 0, 739.7863928099584, 651.4131992337417], [736.8436038892796, 26.42365125513886, 0, -13.645944529403486], [52.6059995768634, 0.5766478826909363, 0, 3.652276608890117], [4.064390630911255, 21.227308482052237, -9.850181835714135, -25.478520228745246], [0.10894961142084457, 430.4165558744953, 0.9485411868036064, 1.2043134356366592], [-50.99361968967514, -9.940305285406637, 2.8197600616391467, 1074.1968084278424], [0.0, 0, 0, 0], [271.02694626750207, 100.0, 0.1141752341038061, 0], [0.0, 0, 101.27789556069858, 16.309801119909068], [16.487452676321006, 367.64355994465126, 0.811145200707465, 2.1060335346434775], [-63.47298946139861, -18.734439819062978, 22.68729284677888, 577.9894357522735], [0, 0, 1.315732081072822, 0], [-44.39761675521737, -10.294894623406512, 19.549846167840954, -47.8535171392054], [712.2486603904933, 1016.9636803217707, -47.77596497017459, 1.9211010218761098], [0.0020800978138082837, 0, 1.2308948954619874, 0], [2.082043335379348, 67.00964082338918, 3.277782805972871, 1020.1069013178786], [0, 1.149976296041136, 0, 0.10910729018665036], [0, 0, 0, 0.02347915234635428], [0.09129272572641525, 587.8096506864642, 0, 0], [0, 212.80055756523055, 0, 2.7598719216694887], [0.0, 100.51664116816043, 0, 10.67698352949659], [-35.0386123647871, 0, 0.9935195251606916, 100.0], [0, 0, 0, 100.0132318415834], [577.9363882074781, 16.203387444787975, 628.8859036844666, 1056.3418358305344], [0, 0, 1.4082108575219658, 493.3520743456298], [0, 10.866322293943265, 2.677737724238119, 524.3752263861775], [0.014491360622990302, 0, 100.00635856467306, 0], [1.3631999602911826, 61.41290280477684, 3.054092652601141, 0], [0.0, 1.2681470204983056, 0, 0], [0, 0, 115.43108352317732, 273.6769785513163], [0, 0, 0.2586840024166835, 0], [0, 191.8293990797517, 190.60181801447044, 0], [2.7696987653762877, 4.087440493852993, 101.3778054338218, 0], [0, -52.7415397599449, 0.0829436583884142, 32.398125291573585], [19.365756936188973, 45.175884832158815, -29.573748157860646, 0.6085016826620571], [876.6896998389019, 1020.7585000734737, 0, -63.57194943270096], [12.451373347555194, 0, 953.3569206855987, 31.773670745579043], [0, 54.02910560996518, 0, 13.648479989763732], [0, 273.00646985347424, 0.16024928817184791, 0], [677.3350132437455, 0.8836835816198951, 271.15935979118035, 1015.820464986747], [-81.2143446783723, 0, 1.589183385411334, 0.9982739223502635], [0, 1.8092314897586848, 0, 3.35729620294333], [0, 1049.319384803554, 0, -18.87376784672649], [0.8891525383807158, 10.673121013275637, -76.70837306631779, 60.9558044435613], [0, 0, 883.4377954676794, 1002.3968989838027], [0, 4.5146474351256884, 4.948905126394528, 38.80941663479441], [1.3325867482807894, 67.58727112118295, 13.2052264761423, -72.6961852543115], [484.6205118199296, 100.37669810898473, 54.83549787585462, 1018.841870041983], [0, 42.29284300516948, 0, 871.5014195733017], [747.010577492699, -45.39389338876125, -5.085658721074942, -33.595907421586304], [1054.7763753777094, 4.479855692333871, 0, 0], [0.18414053060456576, 0.9434164754280001, 191.70546508742865, 982.8049895163996], [1.360211067798286, 1046.8987077349223, -8.230975606901259, -36.886944567163205], [0.7405886355157967, 0.2589895830461669, 310.89801898145976, 0], [0, 1.3447465340308766, 100.0, 0], [372.76399192271975, 0, 0, 811.1990394435371], [-9.863864140773414, -9.827021146347024, 0, 0.0014108714013262545], [0, 0, 0, 1028.6579686669143], [0, 0, 411.39609109909856, 618.8704384461075], [0, 51.84902923680531, 1.9794306945536566, 0], [100.29353571292106, 965.9112834726319, 0, 5.397242000023629], [0, 0, 271.79575748079196, 0], [11.73093339665095, 0, 1064.083720617442, 1.0813623956729133], [0, 212.5042552288923, 0, 0], [0, 41.876167586661616, 0, 0.9434164754280001], [0, 190.57529457845223, 100.77071686153685, 0], [427.09180348564814, 0, 0, 25.05234403323606], [0, 0, 0, 0.759648303206973], [0, 1.3364060530825692, 2.384497293555936, 22.90225718049713], [-9.472796364252268, -9.977601359837214, 0, 2.8960782905468374], [0.1431768295335493, 20.813518536227175, 1092.0355368110584, 996.6175752467069], [20.6460123584922, -25.884817734562645, 0, 1014.6744019679851], [-15.5159759647006, -66.68649572018631, 8.254263322830454, 19.13961558040394], [25.42784512116329, 0, -34.169589313417326, 2.5638404657872687], [1.334051688922603, 0, 722.8216471345942, 1013.7379300678366], [0, 0.0, 0, 0], [44.7781440164053, 0, 100.94341647542801, 1042.6721650058798], [-45.781268604822564, 0, 0, 0], [0, 1028.81352281879, 0, 8.518938377968006], [0, 0, 273.37145483095617, 190.2977563331716], [0.004157450359570827, 0, 0, 791.6051729435457], [-42.52760778402934, -45.81612645967673, -45.69021340480944, 9.636949941720793], [0, 0, 0, 540.9207700236194], [0, 1.705465087428619, 190.95273848724224, 0.787412969324445], [0, 291.4088095901496, 0, 0], [1.1152870999355131, -57.782519105830104, 33.91924179227389, 28.20834220813213], [0, 0.2694132036095711, 0, 0], [7.885512252289825, 33.381900897503556, 1006.6932547929063, -33.39652369342199], [10.464796667177234, 100.36483795603156, 0, 0], [1041.637608251051, 0, 0, 101.40802753238611], [274.30216288380825, 1027.0582939165631, 7.2049858406797895, 57.82516567616534], [0, 414.1171800037275, 190.41012207820853, 815.3337259211335], [0, 60.48245193051005, 192.08063302890503, 11.173173823951453], [663.1176870001864, 1075.1911975358703, 15.222729851289465, 23.74805364781907], [291.6509226027247, 502.74816163507785, 492.351849403464, 1.5620850537692013], [0, 0, 0, 191.1336431405528], [0, 20.777195011883446, 0, 0], [2.710908709449842, 1053.2862949087432, 27.847381340820775, 36.00255431062338], [0, 980.9055765960234, 0.6157398416346607, 0], [191.82642550635342, 0, 0.0, 0], [0, 1.166064091462822, 0, 348.4014275578199], [0.9084361070034958, 6.452315232764159, 0.8320773636025585, 42.59063649224454], [0, 0, 0, 917.5434562447834], [1.2775129134668257, 0, 192.55002436390913, 0], [0.5262093479323857, -7.819259645526937, 0.15083509461907219, 0], [5.10298020209469, 100.66986870931567, 0, 0], [474.0322685286598, 3.107799045975283, 0, 27.15250142851331], [9.425512546732456, 192.7620492353036, 3.572244995550631, 0], [0, 344.68690411535874, 0, 0], [0, 572.4985345999559, 101.47548294836406, 1019.1774662801479], [0, 0, 290.2716663109159, 877.1287449685382], [100.21168392586564, 0, 0, 367.8644420291753], [0, 889.699427472968, 0, -3.0797490224428783], [479.66042882910085, 100.05305854476778, 0, 0.8916857176222506], [0, 0, 0.040232753366859754, 3.0666977372198234], [1.51855332663105, 273.9048926075295, 0, 935.3250940769058], [0, 0, 0, 100.00031305788328], [121.1369330406801, 0, 572.5135959387184, 0], [0, 0, 0, 2.960013959724675], [0, -17.713269427738084, 0, 414.4785794979784], [190.32294236961843, 190.08669632849208, 0, 0], [0.06990592234366091, 663.1620390354776, 0, 0], [0, 41.16905072014381, 1020.5347303947487, 48.086932494532405], [1035.670940797383, 4.9549469330374585, 0, 0], [0, -5.904528291049047, 53.80591681035352, 16.044933987625853], [271.14988778363636, 200.51073947449882, 0, 475.2862910935182], [0.04582411950383331, 17.936855382876242, 0, 0.8491556245838069], [0, 0, 0, 0], [0, 1.1987370368014092, -39.95495963301103, 543.4285144202577], [0.5087641520377153, 0, 0, 1.7825337923253226], [2.4222547526401925, 0, 345.3517080108718, 0], [100.02792780067523, 0, 0, 0.2864368135126397], [673.2074056573165, 15.331614261897323, 0, 0.5171694209634333], [-9.34529757355458, 0, 0, 494.2542542541506], [0.29353571292104813, 654.3357745859623, 0, 0.3531910880867897], [0.0, 778.6139503259517, 1.9704074519465193, 27.510996604644472], [100.29353571292106, 927.0976622702635, 1.422614466419444, 0.39910824287416624], [0, 0, 0.0, 0], [2.899385824762769, 9.865474677223164, 23.445235673995565, 0], [0, 21.31962161853005, 52.813495737466596, 69.44615040195366], [211.33717443054428, 1.7902604041983416, 1.0039741358661431, 10.117935167370312], [489.55939878210813, 770.666152451519, 0.5772415263942957, 24.6775445458481], [100.0, 7.824773353467, 0, 0], [1.5005858059585095, 0, 0, 0], [-12.888898014881878, 11.334827254212957, 49.548841006864464, 16.689152393301676], [690.2488367380262, 0, 562.5892526706522, 0], [0.02335941651252282, 0, 0, 6.087964654208225], [0, 0, 0.2264641832203676, 1.5255280789930363], [-73.98350987496005, -6.295362161947583, 39.10549891515389, 31.092768266393737], [2.9140763276388073, -45.03240024510397, 0, 0], [0.005123702516071554, 0, 2.0606311010313525, 35.55489763269678], [11.514972833026889, 0, 0, 100.04316756294742], [1.32886174712693, 0.8976132039097995, 0, 21.34256977889242], [0, 0, 0, 910.0040443146696], [0, -54.46572269771015, 0, 101.79287670430372], [0, 0.5145979322180443, 0, 0.06302116700273473], [0, 0, 0, 193.614986607245], [0, 0.6717219011147614, 190.10300591269004, 0], [1053.808205723665, 0, 37.447779699537925, 35.70171820360219], [0.7167291586445217, 0, 0, 0], [0, 20.75713816738437, 367.40198100501186, -9.939289094317381], [101.41548364424926, 1.42815466716658, 539.8142572120946, 0], [0, 0, 100.83386283051024, 0], [0, 0, 0, 471.6526281202801], [0.5839531542128711, 0, 0, 0.8219813584641463], [35.55965567428605, 0, 0, 894.1967911463764], [0, 934.2611868063425, 0, 0], [-37.810604312875576, 0, 653.1888828174799, 0], [1052.8281748114587, 0, 0.42645460208495944, -9.197169164459202], [210.86632229394326, 190.0, 0, 0.5572006503537245], [0.8570182355374338, 0, 0, 191.97149519354423], [0, 0, 0, 583.782448238961], [0, 3.36291273744107, 0.615023662786468, 14.834059647801698], [0.7650036284691173, 0, 0.469403610607271, 1.9421213652825307], [0, 21.279200416761004, 4.644202096322068, 90.66793650327827], [0, 0, 24.271006053184074, 0], [0, 817.0201989196094, 0, 0], [13.787317948559963, 6.979213542278129, 31.082863080282305, -9.047748714043625], [0.0, 0, 3.3935253834801635, 0.219849891135528], [0, 0, 0, 2.913711632821055], [274.5137544238493, 943.7426557079734, 0, -9.975708508992856], [481.5578540461745, 345.37166942388956, 0, -44.98617067593868], [0, 0, 0, 271.0649514428171], [0, 0.7137295442509126, 191.92322688263516, 606.5560171786681], [0.36331172586966026, 56.85422778486456, 0, -9.866721744695013], [504.6769451772342, 0, 0.0, 50.508423604199045], [913.128915723978, 0, 0.6007602723598987, 0], [748.5610145953981, 0.24175307708644936, 0, 0], [-30.792815662489804, 0, 880.4996267991696, -52.57866037216368], [271.44153058913764, 0, 273.36971264708455, 0], [0, 0, 16.78705895230993, 45.96337540400239], [783.8449064175488, 1096.0276172498236, 0, 0], [0, -71.32670244783122, 972.4212886306528, 14.377748388998542], [660.2100598216938, 8.917963598165231, 0, 0.1799663339507198], [0.2694132036095711, 24.26023254630078, 0, 1087.6806792611671], [0.29353571292104813, 1052.0676853095, 749.8266146866929, 1060.4043235791748], [1.736507831193434, 3.303823371913069, 1.0083490332033151, 0], [0, 0, 0, 0], [0, 0, 272.20748969114254, 413.729428104076], [1090.090986818321, -40.30883493090421, 2.046255516526478, 16.007725359879725], [-9.592824992633307, 1.8861196808883107, 0, 0], [-9.003873298528706, 60.79443025871685, 0, -87.6678253827579], [5.329519459829603, 0.677908677532606, 0, 272.35410390810387], [432.13041498953316, 136.84520963486395, 1023.6328720634233, 1026.4720804472333], [344.4630444667733, 4.558462814053108, 21.7812926054969, 14.746852509745725], [278.981746252819, 0, -25.35216916236993, 2.2608788357496743], [0, 15.473470335142611, 0, 191.81762155780268], [0, 0, 0, 741.7357974810735], [6.927027560273338, 0.04277351532629658, 0, 30.598823759885803], [474.5089946972804, 4.774076863235603, 35.77894616813236, 4.028324927838296], [0, 0.9926994726511271, 471.95924625926693, 468.8309850971349], [0, 0.0, 0, 0], [1.0427794276775066, 0, 0, 864.2343640704494], [100.69717873040867, 0, 0, 0], [287.51051033847455, 355.893944236243, 0, 0], [1042.4022062016036, 0, 0, 0], [0, 0, 0, 0.18121432001913373], [0, 0, 0.44642777203003486, 109.06340204449096], [0, 0, 0.015775557323343625, 0], [0, 0.11203357559836412, 0, 7.037040701121834], [0, 304.1762403910607, 0, 0], [0, 1.407625066780073, 0, 528.538537945316], [0, 0, 38.63688246984654, 62.947978389608295], [0.31792823365315404, 0, -9.455795067919963, 0], [0, 411.8030941571383, 0, 988.3528122439753], [0, 0, 100.0, 208.44127150911623], [0, 0, 23.503104100259563, 0], [0, 0, 0, 985.139635554277], [0, 0, 0, 100.0], [0, 0, 0, 22.112818029175887], [371.76437532657843, 917.3446632407806, 21.38836936626081, 21.884755331466174], [0, 1.889576501190704, 0, 20.593662486901728], [0, 472.65799553929617, 0, 0], [1068.8862041998348, 0, 0, 16.710235391533207], [0, 693.4498713514347, 0, 12.696694346955349], [690.1830667117865, 271.8659478399253, 0.2377007285896505, 21.337174430544295], [0, 0, 0, 0.02821039634534188], [197.5174607696119, 0, 0.0, 0], [2.7106819128950863, 0, 0, 0], [0.22916241884696148, 0, 0.35602654894213936, 0], [21.72967633700715, 1.5699431704034743, 0, 273.45956645895933], [877.0017184375835, 1045.1469937890379, 0, 0], [0, 100.66268681860561, 0, 0.0], [0, 0, 0, 0], [0, 0, 0.996637901459309, 0], [201.18435622167425, 749.3228051932783, 0, 18.913852579592938], [0, 192.77386132727415, 0, -59.47617205051504], [121.3371744305443, 0, 190.330351291884, 972.2367723815823], [0, 592.4800265310824, 0, 1.9950547729130905], [0.03244517151399233, 0.7054738749556968, 0, 43.245749047235776], [0, 0, 0, 0], [0, 0, 100.0, 289.012425941045], [0, 0, 0, 0.8545606189585497], [0, 209.86552672556786, 0, 414.06520291327354], [534.7399115505593, 0, 0, 9.564417700201663], [0, 100.0, 41.982705333705, 0], [0.0, 0, 0, 272.0713739032033], [0, 0.06410617264469003, 191.746489462706, 1.4883599026160352], [0, 0, 3.1272176255683783, 0], [0, 0.9398665940105785, 103.80884328796279, 100.23769873735198], [12.120894942034518, 363.40694257495124, 0, 0], [19.98705221908199, 0, 0.14840875531346837, 0], [410.9709323989337, 272.59335252745973, 0, 1.0447507898839152], [190.48624705022786, 0, 0, 100.42034538126171], [0, -18.567170214942422, 291.1198045131077, 0], [344.0130346302526, 0, 0, 0], [0, 628.8038844694694, 0, -9.119732994077646], [0, 0, 0.5955907057546117, 0], [-33.39077456705957, 0, 0, 191.97963216699117], [0, 101.72666114688369, 0, 3.2704344722717673], [0, 0, 1.383045902666296, 0.6260751790645572], [0, 0.0, 0, 0], [0, 201.6794124764212, -34.08778723621937, 0], [0, 21.337174430544295, 0, 3.740444266631716], [0, 0, 101.00656323877702, 100.24744302484459], [39.946493995856216, -39.566580328049774, -17.553764105715494, -59.46534094348416], [0, 0, 190.09282726641027, 0], [411.2786482485988, 0, 0, 191.49374663794708], [836.0344355865653, 51.77271331658, 12.931571212424524, 40.8893689177143], [0, 0.927333957635724, 571.4616752476835, 0], [-20.192280945672636, 0, 0.41362209939818145, 0], [15.903839529572483, 0, -26.709301657978347, -24.951591417114418], [0, 0, 0, 100.0], [0, 2.0515597468461806, 22.02786645351133, 0], [190.66239177984585, 776.1596994483334, 0, 0], [1056.4571144891847, 162.01842395920318, 10.273602864080637, 0], [0, 0, 0, 100.67261057566954], [0, 22.388536511385148, 0, 0.18121432001913373], [0, 347.5533418530911, 100.89761320390981, 1.1749702271598257], [0, -17.96463387611216, 1027.2266183898355, 1047.4422896164913], [0, 101.24590490503292, 0, 0], [0, 2.0895563971297486, 0, 393.89550126141455], [25.181197581951444, -53.49215863529883, 22.120445537218732, 12.05812672723697], [0, 0, 0, 1.2243414119742098], [0, 0, 0, 780.0677941689197], [-44.005853030966165, -63.776139224491985, -47.400102475537935, -16.383195955534422], [0, 101.41092018296042, 5.44907492615682, 0], [0, 0, 0, 100.03818571546748], [0, 0.3715122613180943, 0, 0], [0, 0, 0, 1005.9241330909442], [273.79044400159165, 1.351941594209554, 0, 0], [0, 0, 0, 100.68600753654945], [0, 0, 13.345474688201614, 42.61310623115628], [1066.6275186411556, -5.564929613464324, -39.67268502952061, -52.37943241137949], [12.196593315452272, 37.78804019786154, 0, 0], [0, 430.8095926660649, -9.014464917093571, 0.07250443976087764], [957.2232675054081, 0.924744523899356, 561.7210352492314, 0], [100.93173950815297, 0, 0, 0], [0, 0, 0, 0.6260751790645572], [0, 0, 100.77071686153685, 0], [0, 0.8976132039097995, 0, 271.1361779491108], [687.3329794686895, 826.4315246461017, -17.087752043959604, -9.53245161490271], [0, 0, 356.0685898525592, 690.0590352206659], [0, 1.534918578685757, 0, 272.2944122755125], [0, -41.16182630230281, 1040.3882641349894, 1054.2213798421424], [0, 0, 0.5987816497058129, 101.40802753238611], [471.253295982607, 0, 0, 1.2578203046933782], [0, 345.1779318013756, 274.1250193553305, 1.5184776137442293], [962.6253740693594, -17.21260444580895, 45.07748005543012, 18.3416136165873], [0, 0, 0, 0], [0, 0.8112924922826633, 1.009851840082313, 0], [0, 0, 3.592703494342959, 0], [0, 0, 101.7104970383333, 0], [0, 0, 100.0, 0], [101.24590490503292, 0, 0, 14.710861314941583], [0, 0.0, 0, 0], [0, 0.5254993235791734, 0, 0], [271.8827290960436, 0, 0, 101.58646064328025], [0, 4.3731833130688225, 0, 0], [0, 959.7853320089486, 0, -25.481687946314274], [0, 19.82690116991624, 0, 212.09770996961936], [0, 0, 0, 191.40208836094263], [190.0, 0, -13.67075158406811, -16.806940614303354], [1021.5531647795463, 161.43293353981397, 0, 28.46333538059524], [-41.28776603630269, 0, -25.282050569812412, -21.840107428913683], [0, 0, 0, 635.1914730931542], [469.19451714086614, 290.3632537623286, 0, 5.087215628256543], [0.4095380957201422, 0, 0, 0], [0.0, 0, 0, 527.75885502841], [0, 100.0, 0, 0], [0, 0, 841.3049623915083, 2.7489512716648288], [0, -17.82270924710198, 0, 0], [0, 0, 271.66843078961597, 0.09825403353061801], [190.10510459169302, 0, 0.0751484600819921, 1.1774832780856426], [0, 0, 100.02821039634534, 0], [571.6469598519636, 0, 272.7889690414975, 0], [471.0688288750684, 0, 0, 28.75275815744706], [0.4023163259510407, 0, 0, 0], [101.26885028993354, 0, 0, 25.540296806204477], [10.101068415600452, 100.98692398559795, 0, 0], [0, 1.047792484403642, 0, 430.02739873608334], [0, 0.537882111460081, 0, 0], [0.0, 0.28339644555729687, 0, 0], [0, 0, 0, 0], [616.452495203748, -24.54741627948109, 0, 5.604710420718706], [0, 1.3804613206273253, 0, 0], [100.40997237769983, 28.856664943815336, -25.012353947330695, 0], [100.0, 0, 0, 0], [0, 0.5507532353726873, 0, 0], [0, 191.6162190928664, 656.9629169151514, 0], [0, 0, -42.43654180893017, -9.345574193813583], [0, 0, 0, 100.05874194437222], [0, 0.7668135300465551, 0, 0], [0, 0.743100842670247, 0, 3.366774445163232], [21.765974583255634, 0, 0, 0.8295435055266517], [-8.936099914180835, 0, 0, 0], [0, 0, 0.0002393548946430284, 21.728557561264203], [-62.49756484569127, -18.47701137527011, 429.4743838091979, 9.780812844786887], [0, 0, 0, 433.64781692976993], [0, 0, 100.6564692091949, 0], [0, 19.602894383808998, 0, 28.748397180756648], [0, 0, 20.866322293943266, 469.98376941480853], [100.0, 0, 0.13218235101177045, 0], [3.9010828633819807, 0, 694.6088463476485, 23.297293274215747], [0, 273.6924816086705, 0, 0], [0, 0, 0, 100.02810706896955], [344.49121946209203, 1079.6808953193042, -31.01499428356674, -45.53888795748712], [0.7295778418450166, 0, 0, 0], [20.667784316118173, 0, 0, 0], [0, 13.504564740490608, 0, 0.8108313403785621], [0, 101.07784431859609, 0, 0.0], [0, 0, 0, 0], [0.5272113176715079, 0, 0, 0], [0, 0, 0, 0.5750729499726083], [482.8857899390621, 0, 0, 362.3192167579207], [18.362703188497395, 19.18287265665549, 0, 0.6260751790645572], [0, 100.43278825210024, 0, 686.9895934527317], [-9.424927050027392, -9.102386796090201, 0, 0], [1.0344265176817324, 0, 0, 346.69571198348785], [473.83276912376596, -16.068359638658826, 1040.9826856156888, 1083.093524237314], [0, 0, 194.591129203623, 22.281502358137207], [0, 2.6768056780031424, 12.327002557553554, 0], [0, 1.251511490618544, 0, 101.26874790332153], [0, 0, 1025.446465515017, 1066.9431122828958], [0, 0, 100.09328317353182, 1050.4045400741081], [0, 0, 0, 1.2082713595736103], [0, 1029.4066491175754, 0, 0], [0, 0, 20.51231935547627, 0], [0, 415.1084647373173, 0, 941.3532368320497], [0, 0, 4.666166215155875, 4.231199988817183], [0, 643.1561371657446, 11.284860245413961, -9.49776653128199], [0, 0, 0, 0], [0, -47.16348203552958, 657.1696255934712, 274.8989839975685], [211.59895769231878, 0, 0, 271.93380754749376], [696.0756965988945, 0, -24.58914462310832, 0], [100.0, 100.94341647542801, 0, 0], [2.0459796515488895, 0, 10.265944299271332, 0], [0, 101.38371504711469, 271.7724498208441, 821.620392956958], [0, 1.3945603963109001, 0, 4.58664144977095], [0, 0, 0.02970039291815136, 0], [0, 735.1804624293457, 1.7849492309118502, 5.4215501260202865], [0, 0, 0, 1.0741638605491568], [0, 0, 0.4640499043545194, 0], [272.7700687067363, 0, 348.2000549797385, 2.727724365943676], [0, -8.889008202531627, 0, 0], [0, 0, 470.4032257283674, 1.488033494171452], [4.385290136345493, 56.14114882400778, 1.039735382351736, 39.96100114875186], [190.80785188351882, 0, 0, 0.21809139738486027], [0, 0, 191.7086708847043, 833.3824045931143], [0, -9.102386796090201, 0, 0], [412.2218520458749, 0, 0, 0], [0, 759.1120668016423, 0, 1.97892666633736], [0, 0, 0, 0.21809139738486027], [0, -32.19552913013046, 0, 0], [35.90410846496239, 0, 0, 0], [0, 2.712857612336476, 0, 882.7597323549791], [0, 918.1651920231561, 0, -9.40806174485695], [0, 0, 0, 0], [0, 0, 101.24590490503292, 0], [0, 0.5145979322180443, 2.032205162174937, 1.6284440723511828], [991.2491962599141, -40.807452237744826, 0, -50.193943895100475], [0, 190.93885491146327, 0, 191.69633721533012], [0, 691.5218577616172, 9.450560699674114, 0], [192.15524763013943, 0, 101.76150340674053, 16.541833399038428], [0, 0.679266597087534, 2.3244634436801035, 0], [0, 0, 0, 0], [190.70658802384145, 0, 192.30129423575397, 0], [291.9897773606035, 0, 11.430258934991214, 0], [0, 0, 0, 0], [0, 0, 0, 100.89761320390981], [3.741998057847426, 0, 0, 0], [0, -9.085227747785494, 34.586957044545116, 12.631884280639705], [0, 0, 0, 1.705465087428619], [0, 0.5692468293140095, 0, 0.32844283156534915], [0, 3.03909043402509, 1.2220619830851513, 2.4731410258014117], [0, 0, 0, 192.81211675899306], [0, 1013.0225065603504, 100.34669821949308, 0], [0, 347.0981977145878, 103.9744922142142, 0], [0.7737098536900735, 0, 0, 0], [0, 279.2020067093883, 0, 921.6887913856856], [0, 486.78768084605787, -9.504025593144767, 0], [-24.254974618160176, -47.39925254545525, 1016.1441227252978, -47.13557729155015], [0, 0, 0, 346.04541663240894], [0, 0, 0.0, 0], [0, 0, 13.786664948981123, 0], [0.9462692353790418, 45.18711554100947, 0, 0], [0, -9.483358831839578, 0, 2.2242835345946235], [838.5796500418612, -17.44524020591492, 31.744523051996005, 34.768725973156464], [0, 0, 0, 0], [0.005453097745503732, 273.8541943907143, 0, 0], [76.9632883681688, 6.796250097737988, 0, 1.7783703349883784], [0, 0, 0, 100.03388296369133], [0, 272.5079784914508, 0, 0], [0, 0, 0, 0], [0, 0, 271.7144754245354, 0], [0, 0, 0, 0], [275.58442665759793, 4.091019599624454, 0, 0], [0, 0, 0.6033804613120746, 273.1932545045602], [0, 0, 0, 0], [0, 0, 0, 0], [0, 0, 100.08959225433894, 0], [0, 0, 0, 0], [0, 473.9056511549318, 0, 1.7828156352067541], [0, 0, 0, 21.99631941300253], [0, 0, 210.01349298782867, 587.073837920483], [0, 36.29255865356211, 0, 0], [0, 11.337174430544293, 16.720927375449758, 6.368873480365617], [0, 0, 636.3881269092351, 874.091649213614], [0, 0, 272.12025854499683, 470.8067189541515], [0, 0, 348.51978844340476, 595.0860672324742], [0, 994.9529922460977, 0, 0], [0, 0, 0, 0.22183496983833711], [0, 0, 0, 364.0339856032382], [0, 0, 0, 0], [0, 0.963818013798298, 0, 0], [0, 0, 0, 0], [0, 0, 0, 0], [0, 21.816766411730477, 0, 0], [0, 291.79465040168026, 0, 0], [0, 0, 0, 0], [0, 0, 0, 0], [0, 0, 0, 0], [0, 0, 0, 193.38376467308592], [0, 0, -15.46673042613798, 0], [1.0873202185495432, 0, 0, 0], [3.4308315528172986, 0, 0, 21.633298318586622], [0, 0, 2.521377385845849, 0], [720.4161083884352, 0, 0, 0], [0, 0, 100.22646418322037, 0], [44.57598688315659, 0, 0, 21.337174430544295], [0, 0, 0, 365.1006063511999], [0, 0, 0, 0], [0, 0, 0, 0], [0, 0, 0, 120.57253210268503], [0, 20.50792270566643, 0, 21.336625473082336], [71.15693530233172, 0, 0, 2.882991194972596], [0, 1.0862943944472265, 0, 2.445421547937378], [0, 38.1384322128634, 0, 0], [0, 0, 0, 0], [100.29353571292106, 0, 0, 0], [192.03468413326846, 0, 0, 0], [0, 0, 0, 0], [0, 32.634888554244625, 0, 0], [8.01480864979321, 17.566493383027336, 0, 18.52966684257516], [0, 28.821186680770907, 5.123076400977601, 0], [41.57903224551002, 0, 4.0506972492465385, 0], [493.7844815363444, 0, 0, 2.0436151210413946], [0, 0, 0, 0], [0, 0, 0, 0], [0, 0, 101.2256768163134, 1.8194695624533896], [0, 2.0681703505320357, 0, 0], [0, 3.8923756996618195, 0, 0], [0, 0, 0, 0], [0, 0, 0, 0], [530.222093364851, 0.6442212729834784, 0, 0], [0, 0, 0, 0], [275.4573911253656, 0, 0, 291.34772291179115], [0, 0, 0, 0], [0, 0, 1.6121496512537818, 4.352173651013265], [0, 0, 0, 100.30672079065988], [0, 0, 0, 100.73271392888552], [0, 0, 0, 294.26920968217905], [0, 0, 0, 0], [191.23467660957522, 0, 0, 0], [0, 0, 0, 101.69799554055163], [0, 1.6979955405516287, 0, 0], [0, 0, 0, 0], [0, 0, 0, 39.977102738739774], [0, 2.185051694987951, 0, 0], [0, 1.1598222216810252, 0, 0], [0, 211.3368410142454, 0, 0], [0, 0, 6.120231971891615, 0], [100.69226337854849, 0, 0, 0], [0, 0, -8.022376493886744, 0], [634.2009535931694, 0, 0, 0], [0, 0, 3.564444907361071, 0], [0, 0, 0, 0], [0, 0, 0, 0], [24.32043958885898, 0, 5.4840915864861985, 0], [0, 0, 0, 3.5018973733795242], [0, 0, 0, 1.7502913666497086], [0, 0, 4.67119131743595, 0], [0, 0, 0, 0], [0, 0, 0, 20.84621700395161], [290.1685659219155, 0, 0, 0], [1.1405304125226445, 0, 0, 0], [0, 1.207953461138536, 0, 0], [0, 102.00675966878356, 0, 0], [0, 0, 0, 120.9445964143308], [0, 0, 1.5130811127222685, 0], [0, 0, 100.98842725797614, 0], [0.0, 1.1937364462302178, 0, 0], [0, 0, 1.2099341179945466, 0], [0, 0, 0, 25.475307504820094], [0, 0, 0, 0], [0, 0, 0, 0], [0, 0, 0, 0], [0, 4.219998518264095, 0, 0], [0, 0, 0, 0], [577.6558478134642, 0, 0, 0], [0, 0, 1.5023246632513179, 0], [18.848057138725498, 0, 0, 0], [594.0387913952143, 0, 0, 0], [0, 0, 0, 0], [21.031797471280335, 18.198845633193212, 0, 0], [0, 0.0, 0, 0], [0, 45.179071662729555, 3.2610938601780632, 0], [0, 19.203456987489865, 0, 2.5584545650617123], [0, 0, 0, 0], [0, 0, 100.9673928965662, 2.0890273957716783], [100.69717873040867, 0, 0, 0], [0, 0, 0, 1.13619915400485], [16.981347283182938, 0, 0, 0], [0, 0, 0, 3.4652288814551615], [0, 0, 361.58364478274314, 0], [0, 0, 0.20490955809869704, 0], [272.57089956536674, 0.3669383377399449, 0, 0], [0, 34.97206375586434, 0, 0], [0, 0, 0, 6.686230299672099], [0, 19.41475846542607, 0, 0], [0, 0, 0, 0], [0, 1.4627834164554834, 0, 0], [0, 0.4554665009256512, 629.0321605944966, 0], [0, 0, 0, 0], [1.8468263681003763, 0, 0, 0], [0.5795459503233905, 0, 0, 0], [0, 0, 0, 3.1570337834755513], [0, 0, 0, 0], [0, 0.5218278314256636, 0, 0], [0, 0, 0, 207.553332188968], [0, 0.4680594404794487, 1.6301031207721774, 0], [0, 0, 1.7305301904117139, 0], [2.456471193610802, 0, 0, 30.890083847349704], [0, 0, 0, 0], [0, 0, 0, 0], [0, 0, 0, 0], [0, 0, 0, 101.37552434097023], [0, 1.772487354977725, 0, 0], [0, 0, 0, 0], [0, 0, 0, 0], [0, 0, 0, 0], [121.3371744305443, 0, 0, 0], [0, 0, 0, 0], [0, 101.59103117315047, 0, 0], [0, 203.47995460715083, 0, 0], [0, 4.079423670242083, 0, 0], [0, 0, 0, 0], [0, 0, 0, 0], [0, 0, 100.02515640609387, 0], [0, 0, 0.07075629790005235, 0], [100.46235069051583, 0, 0, 0], [0, 0, 0, 0], [0, 0, 0, 0], [0, 0, 0, 0], [0, 0, 101.24590490503292, 0], [0, 0, 0, 1.2459049050329059], [349.72882446929987, 0, 0, 0], [0, 0, 274.2125636271072, 0], [0, 0, 0, 0], [212.38232518803136, 0, 0, 0], [0, 0, 0, 0], [0, 100.73716067168183, 0, 0], [0, 11.337174430544293, 0, 0], [0, 0, 0, 0], [0, 2.821742802652509e-05, 0, 0], [0, 0, 0, 0], [0, 26.459411636648415, 0, 0], [0, 0, 0, 0], [21.745021715945803, 40.3909944366829, 0, 0], [0, 0, 0, 1.4201342481752501], [0, 0, 0, 0], [0, 0, 0, 0], [0, 0, 0, 0], [480.2126995168136, 0, 0, 0], [100.72473273263132, 0, 0, 0], [0, 100.78285840870734, 0, 0], [0, 0, 0, 0], [0, 0, 0, 0], [0, 0, 0, 0], [0, 0, 0, 384.6488297001473], [0, 0, 0, 31.60441683589134], [0, 0, 0, 0], [0, 0, 0, 0], [294.45640531222966, 0, 0, 0], [0, 0, 0, 0], [0, 0, 0, 0], [0, 0, 0.7259739500861865, 0], [0, 0, 293.657821141593, 0], [0, 0, 0, 5.456730525865616], [0, 0, 0, 0], [0, 0, 102.11290626684006, 0], [0, 0, 0, 1.668557201668234], [0, 100.37667763817477, 0, 0], [0, 100.56924682931401, 0, 101.99872990752813], [21.10884444705688, 0, 0, 0], [0, 0, 21.44766018109671, 0], [0, 0, 0, 0], [100.39077804578434, 0, 0, 0], [121.59906180823774, 0, 0, 0], [0, 0, 0, 0], [0, 101.99872990752813, 0, 0], [0, 0, 0, 0], [0, 284.3642465835667, 0, 0], [0, 211.96624110780294, 0, 0], [0, 17.642976318754194, 0, 2.539377710005552], [0, 101.66539939019917, 0, 0], [0, 0, 0, 0], [0, 0, 0, 0], [0, 100.76811832117191, 0, 0], [53.17870326143542, 0, 0, 0], [0, 0, 0, 0], [0, 19.929805909225085, 0, 0], [0, 0, 0, 0], [0, 0, 0, 0], [1.7843567111629264, 0, 0, 0], [0, 0, 100.0, 0], [100.00928099808709, 0, 0, 0], [0, 0, 100.0, 0], [0, 0, 0, 0], [0, 0, 0, 102.01550909142045], [0, 0, 0, 0], [0, 0, 0, 0], [101.15384253740878, 0, 0, 0], [101.3829520946795, 0, 0, 0], [11.465913870525185, 0, 0, 0], [0, 0, 0, 347.1626367007983], [0, 100.56924682931401, 0, 0], [0, 0, 0, 0], [4.824723805203024, 0, 0, 0], [0, 0, 0, 191.43683473426842], [0, 0, 0, 0], [100.46235069051583, 0, 0, 0], [107.29462590918989, 0, 0, 0], [0, 101.49182756413914, 0, 0], [100.46235069051583, 0, 0, 0], [0, 0, 0, 0], [0, 0, 0, 0], [0, 0, 0, 21.337174430544295], [0, 273.6815968549151, 0, 0], [0, 0, 0, 0], [0, 0, 0, 0], [0, 120.22273835694362, 0, 0], [0, 0, 0, 0], [101.87105796803104, 0, 0, 0], [0, 0, 0, 0], [0, 0, 0, 0], [0, 0, 21.337174430544295, 0], [274.81672536758543, 0, 0, 0], [0, 0, 192.09070006033744, 0], [0, 0, 0, 0], [0, 0, 0, 0], [0, 0, 0, 0.9484737338446456], [0, 0, 0, 0], [0, 0, 0, 0.34530256401342463], [102.19526477138236, 0, 0, 0], [0, 0, 0, 0], [0, 1.7987484739076356, 0, 0], [0, 0, 101.1178839909412, 0], [0, 190.00873995891425, 0, 0], [0, 0, 0, 0], [0, 0, 0, 1.8197503387499567], [0, 0, 0, 0], [0, 0, 0, 0], [0, 0, 0, 0], [0, 0, 0, 3.165704114404699], [0, 0, 0, 230.0114735525387], [0, 0, 0, 0], [0, 22.816202674408817, 0, 0], [0, 0, 0, 0], [0, 100.51459793221805, 0, 0], [0, 101.69425264840875, 0, 0], [0, 0, 0, 0], [0, 0, 0, 0], [118.91450578901089, 0, 0, 0], [0.7639060801067772, 0, 0, 1.3659608381843633], [0, 0, 0, 0], [0, 0, 194.01801032851094, 0], [0, 0, 21.338713344436453, 21.512864407584022], [0, 0, 0, 0], [0, 0, 0, 0], [101.48908204773754, 0, 0, 0], [100.44006071798395, 0, 0, 0], [99.67233608088931, 0, 0, 0], [278.3055376716344, 0, 0, 0], [0, 0, 0, 121.3371744305443], [0, 0, 100.40364972737353, 0.8217961848068035], [0, 100.02925566832911, 0, 0], [0, 0, 0, 0], [0, 0, 0, 101.97762350611326], [0, 101.22094232051793, 0, 0], [0, 0, 0, 0], [0, 0, 0, 1.2993094140672512], [191.12131441452962, 0, 0, 0], [100.3060312454135, 0, 0, 0], [0, 0, 0, 0], [0, 1.9903318045530285, 0, 0], [0, 0, 2.109336770825409, 0], [0, 100.6842444721804, 0, 0], [101.24590490503292, 0, 0, 0], [0, 0, 0, 0], [0, 0, 0, 0], [0, 0, 0, 0], [0, 0, 0, 0], [0, 0, 100.21323758858892, 0], [0, 0, 0, 0], [0, 0, 0, 1.8200080714677935], [191.67729508506696, 0, 0, 0], [0, 0, 0, 0], [121.10113581877772, 0, 0, 0], [0, 0, 0, 2.40846318966373], [0, 0, 0, 0], [0, 0, 0, 193.7559128404239], [0, 1.6479670596020939, 0, 0], [0, 0, 0, 366.37157266341677], [0, 0, 0, 0], [0, 0, 0, 0], [0, 120.74671830298746, 0, 0], [0, 0, 0, 0], [121.10113581877772, 0, 0, 0], [0, -8.11743557145663, 0, 0], [0, 0, 0, 0.34530256401342463], [0, 120.21488830865151, 0, 0], [0, 0, 0, 2.126719336539599], [0, 0, 0, 37.3747631113023], [0, 0, 0, 101.86782184401294], [0, 0, 0, 0], [0, 0, 0, 0], [0, 0, 0, 0], [0, 0, 0, 0], [0, 0, 100.0, 0], [0, 0, 0, 0], [0, 0, 0, 100.83525593956614], [0, 0, 0, 0], [0, 0, 0, 0], [0, 0, 0, 0], [0, 0, 0, 22.214261385042946], [0, 1.4088527245227045, 0, 0], [0, 1.5997502134849129, 0, 0], [0, 0, 0, 1.3519140722075353], [0, 0, 0, 0], [0, 0, 0, 101.26846993806288], [0, 0, 0, 0], [0, 0, 0, 0], [0, 0, 0.0063585646730630815, 0], [0, 101.26141282436043, 0, 0], [100.0, 0, 0, 0], [0, -8.439617572649448, 0, 0], [101.81938678779522, 0, 0, 0], [0, 0, 0, 0], [0, 0, 0, 0], [0, 117.5193056399175, 0, 0], [0, 0, 0, 0], [0, 0, 0, 3.1337348155895], [0, 0, 0, 0], [0, 0, 0, 0], [0, 0, 0, 0], [0, 0, 0, 1.6807904679686534], [0, 0, 0, 0], [0, 0, 0, 101.43250473526322], [0, 0, 0, 1.6718195972420666], [1.6718195972420666, 0, 0, 0], [0, 0, 0, 0], [122.13657104478598, 0, 0, 0], [0, 21.21610762117854, 0, 0], [0, 0, 0, 0], [0.19513543141060882, 0, 0, 0], [0, 0, 0, 0], [0, 101.24590490503292, 0, 0], [0, 0, 0, 0], [0, 0, 6.936176316595383, 0], [0, 0, 1.489082047737531, 0], [0, 0, 0, 0], [0, 0, 0, 0], [102.07547472493769, 0, 0, 0], [0, 0, 0, 2.075474724937679], [0, 0, 0, 0], [0, 0, 0, 0], [208.463073697156, 0, 0, 0], [0, 0, 0, 0], [194.49752294756829, 0, 0, 0], [0, 0, 0, 0], [0, 1.2459049050329059, 0, 0], [119.91439543860406, 0, 0, 0], [0, 0.0, 0, 0], [0, 0, 0, 21.29739022245401], [0, 0, 0, 191.96352072560632], [0, 101.35008657280592, 0, 0], [0, 0, 1.2537895020687022, 0], [0, 0.48742307832018456, 0, 0], [0, 0, 0, 0], [0, 0, 0, 0], [0, 0, 101.93603561403059, 0], [0, 0, 0, 0], [0, 0, 0, 0], [0, 0, 0, 0], [0, 0, 0, 0], [0, 0, 0, 101.52456947872186], [0, 20.325551839604813, 0, 0], [0, 0, 0, 0], [0, 120.9227165469199, 0, 0], [0, 0, 0, 0], [0, 0, 0, 0], [0, 100.94070473775267, 0, 0], [0, 0, 0, 0], [0, 0, 0.8338628305102316, 0], [101.20795346113854, 0, 0, 0], [0, 0, 0, 0], [0, 0, 0, 0], [0, 0, 0, 121.34970255596943], [0, 0, 0, 0], [0, 1.0773961120431252, 0, 0], [0, 0, 0, 0], [0, 0, 0, 0], [0, 21.420570091672946, 0, 0], [0, 0, 0, 0], [0, 192.4349574913897, 0, 0], [0, 1.6223340437890301, 0, 0], [101.35191407220753, 0, 0, 0], [0, 0, 100.3447612520323, 0], [0, 101.68654189543648, 0, 0], [0, 0, 0, 0], [0, 0, 1.6976099742120572, 0], [0, 0, 0, 1.536693327277633], [0, 0, 0, 0], [0, 0, 0, 0], [0, 0, 0, 0], [0, 0, 0, 0], [0, 21.274934618748215, 0, 0], [0, 0, 0, 101.28587035061163], [0, 101.27337775258829, 0, 0], [0, 20.222738356943623, 0, 0], [0, 0, 0, 0], [0, 0, 0, 101.0677804113224], [0, 0, 0, 0], [100.69717873040867, 0, 0, 0], [0, 0, 0, 101.42044768386215], [0, 0, 0, 1.2841036806528219], [0, 0, 0, 0], [0, 0, 0, 0], [0, 0, 1.6621233471461883, 0], [0, 0, -8.337876652853813, 0], [0, 100.98692398559795, 0, 0], [100.69717873040867, 0, 0, 0], [0, 0, 0, 100.0], [0, 0, 0, 1.4494822981239857], [0, 0, 0, 0], [0, 0, 0, 0], [0, 101.33334574931712, 0, 0], [0, 0, 0, 0], [0, 0, 0, 21.337174430544295], [0, 0, 0, 0.7802346632286312], [0, 0, 0, 0], [0, 0, 0, 1.0654647865454485], [0, 0, 1.1646581850523712, 0], [0, 0, 1.1484091743161982, 0], [0, 0, 0, 0], [0, 0, 0, 1.1484091743161982]], "states": [[-10, -10, -10, -10, -10, 0, 0, 0, 0], [-10, -10, -10, -10, -10, 0, 0, 0, 10], [-10, -10, -10, -10, -10, 0, 0, 10, 0], [-10, -10, 0, -10, -10, -10, 10, 0, -10], [-10, -10, -10, -10, -10, 10, 0, 0, 0], [0, -10, 0, 10, -10, 0, 0, 0, 0], [-10, -10, 10, 0, -10, 0, 10, 0, 0], [10, -10, 0, 0, -10, 0, 0, 0, 0], [0, -10, 0, 0, -10, 0, -10, -10, -10], [0, 0, 0, -10, -10, 0, 0, 0, 10], [-10, 0, 0, -10, -10, 0, 0, 0, 0], [0, 10, 0, 0, -10, 0, 0, -10, 0], [0, 0, 0, -10, -10, 0, -10, -10, 0], [0, 0, 0, 0, -10, -10, 0, 0, 0], [0, 0, 0, 10, -10, -10, 0, -10, -10], [-10, -10, 0, 0, -10, 0, 0, 10, 10], [-10, -10, 0, -10, -10, -10, 0, 0, -10], [0, -10, 0, 0, -10, 0, 0, 10, 0], [-10, -10, 10, 0, -10, 0, 0, 0, 0], [0, -10, 0, 0, -10, 0, 0, 0, 0], [0, 0, 0, -10, -10, 0, 0, 0, 0], [-10, 0, 0, -10, -10, 0, 10, 0, 0], [0, 0, 10, -10, -10, 0, 0, 0, 0], [-10, -10, -10, 10, -10, 0, 0, -10, 0], [10, 0, 0, 0, -10, 0, -10, -10, 0], [-10, -10, 0, -10, -10, -10, 0, 10, -10], [-10, -10, -10, -10, -10, 0, -10, 0, 10], [0, -10, 0, 0, -10, 0, 0, 0, 10], [0, -10, 0, 0, -10, 10, 0, 0, 0], [0, 10, 0, -10, -10, 0, 10, 0, 0], [-10, 0, 10, -10, -10, 0, 0, 10, 0], [10, 0, -10, -10, -10, -10, 0, 0, -10], [0, -10, -10, 0, -10, -10, -10, -10, 0], [-10, -10, -10, 0, -10, -10, 0, 0, -10], [-10, -10, -10, -10, -10, 0, 0, 10, 10], [-10, -10, -10, -10, -10, 0, 10, 0, 0], [-10, -10, -10, -10, -10, 10, 0, 0, 10], [0, -10, 10, 0, -10, 0, 0, 0, 10], [-10, -10, 10, 0, -10, 10, 0, 0, 0], [0, -10, 10, 0, -10, 0, -10, -10, -10], [0, 0, -10, -10, -10, -10, 0, 0, -10], [0, 10, 0, 0, -10, 0, 0, -10, 10], [0, 10, 0, -10, -10, 0, -10, -10, 0], [-10, -10, -10, 0, -10, 0, 0, -10, 0], [0, 10, 0, 0, -10, 0, -10, -10, 0], [-10, -10, 0, -10, -10, -10, -10, 0, -10], [-10, -10, -10, -10, -10, 10, 10, 0, 0], [0, 0, 0, 10, -10, -10, 0, 0, 0], [0, 0, -10, 0, -10, -10, 0, 0, 0], [0, 0, 0, 0, -10, -10, 10, 0, 0], [10, -10, -10, 0, -10, 0, 0, 0, 0], [0, 0, 0, -10, -10, 0, -10, -10, -10], [-10, 0, 0, -10, -10, 0, -10, -10, -10], [-10, -10, 0, 0, -10, 0, 0, 0, 0], [-10, 0, 0, -10, -10, -10, -10, 0, 0], [0, 0, 0, 0, -10, 0, 0, -10, -10], [-10, -10, -10, -10, -10, 0, -10, 0, 0], [-10, -10, 10, 0, -10, 0, -10, 0, 0], [10, 0, 0, -10, -10, 0, 0, 0, 0], [-10, 10, 0, -10, -10, 10, 0, 0, 0], [-10, -10, 10, 0, -10, 0, 0, 0, 10], [0, -10, 10, 0, -10, 0, 0, 0, 0], [-10, -10, -10, 0, -10, 0, -10, -10, 0], [-10, -10, -10, 0, -10, -10, 0, 0, 0], [-10, -10, -10, 10, -10, -10, 0, 0, -10], [-10, -10, -10, 0, -10, -10, 0, 10, 0], [-10, -10, -10, 0, -10, -10, 10, 0, 0], [-10, -10, -10, 0, -10, -10, 0, 0, 10], [0, -10, -10, 0, -10, 0, 0, 0, 0], [-10, 0, 0, -10, -10, -10, -10, 10, 0], [0, 0, -10, 0, -10, -10, 10, 0, 0], [-10, -10, -10, 0, -10, -10, 0, -10, -10], [-10, -10, 0, 0, -10, 0, 0, 10, 0], [-10, 10, -10, -10, -10, -10, 0, 0, -10], [-10, -10, 0, -10, -10, 0, 0, -10, -10], [10, -10, -10, 0, -10, 0, -10, -10, -10], [-10, -10, -10, -10, -10, 0, -10, -10, -10], [0, -10, 0, 0, -10, 0, 10, 0, 0], [0, 0, 0, 0, -10, -10, 0, 0, 10], [0, 0, -10, 0, -10, -10, 0, 10, 0], [0, 0, 0, 0, -10, -10, 0, 10, 0], [0, 0, 0, 0, -10, 0, 0, -10, 0], [0, 0, 0, 0, -10, -10, 0, -10, -10], [-10, 10, 0, -10, -10, 0, 0, 0, 0], [-10, -10, -10, -10, -10, 0, -10, -10, 0], [-10, -10, -10, -10, -10, 0, 0, -10, -10], [-10, -10, -10, -10, -10, 0, 10, 0, 10], [-10, -10, -10, -10, -10, 10, 0, 10, 0], [0, -10, 0, 10, -10, 0, 10, 0, 0], [0, -10, -10, 0, -10, 0, 0, 10, 0], [-10, 10, 0, -10, -10, -10, -10, 0, 0], [10, 0, -10, 0, -10, -10, 0, 0, 10], [0, 0, 0, 0, -10, 0, 10, -10, -10], [0, -10, 0, 0, -10, 10, -10, -10, -10], [10, -10, -10, 0, -10, 0, 0, 0, 10], [-10, -10, 0, -10, -10, 0, 10, 0, 0], [10, 0, 0, 0, -10, -10, 0, 0, 0], [0, 10, 0, 0, -10, -10, 0, 0, 0], [-10, 0, 10, -10, -10, -10, -10, 0, 0], [0, -10, -10, -10, -10, 0, -10, -10, 10], [-10, 0, 0, -10, -10, 10, -10, -10, -10], [-10, -10, 0, 10, -10, 0, 0, 0, 0], [10, 0, -10, 0, -10, -10, 0, 0, 0], [0, 0, 0, -10, -10, 0, 10, 0, 0], [-10, 0, 0, -10, -10, 0, 0, 10, 0], [10, -10, 0, 0, -10, 0, -10, -10, -10], [0, 0, 0, 10, -10, -10, 0, 10, 0], [-10, -10, -10, -10, -10, 10, -10, 0, 0], [0, -10, 10, 0, -10, 0, -10, 0, 0], [-10, 0, -10, 0, -10, -10, 0, 0, 0], [0, 0, -10, 0, -10, 0, 0, -10, 0], [0, 0, -10, -10, -10, -10, -10, 0, -10], [10, 0, 0, -10, -10, 10, 0, 0, 10], [0, -10, -10, 10, -10, 0, 0, 0, 0], [0, -10, -10, 0, -10, -10, 10, 0, -10], [10, -10, 0, 0, -10, 0, 10, 0, 0], [0, -10, 0, 10, -10, 0, -10, -10, -10], [0, 0, 0, -10, -10, 0, 0, 10, 0], [-10, 0, 0, -10, -10, 0, 0, 0, 10], [0, 0, 0, 0, -10, 0, -10, -10, 0], [-10, 0, 0, -10, -10, 0, -10, -10, 0], [0, 0, -10, 10, -10, -10, 0, 0, 0], [0, 0, 10, 0, -10, -10, 0, 0, 0], [-10, -10, -10, 0, -10, 0, 0, -10, 10], [-10, -10, -10, -10, -10, 10, -10, 10, 0], [10, 10, -10, -10, -10, -10, 0, 0, -10], [-10, 10, 10, -10, -10, 0, 0, 0, 0], [0, -10, -10, 0, -10, -10, 0, 0, 0], [0, -10, 0, 0, -10, -10, 0, 0, 0], [-10, 0, -10, -10, -10, -10, 0, 0, 0], [-10, -10, 0, 0, -10, 10, 0, 0, 0], [-10, -10, 10, 0, -10, 0, 0, 10, 0], [-10, -10, 0, 0, -10, 0, 0, 0, 10], [0, -10, 10, 0, -10, 0, 10, 0, 0], [-10, 0, -10, -10, -10, -10, 0, 0, -10], [-10, -10, 0, -10, -10, 10, 0, -10, -10], [-10, -10, -10, -10, -10, 0, 10, 10, 0], [0, 0, 10, 10, -10, -10, 0, 0, 0], [-10, -10, -10, -10, -10, 10, 10, 0, 10], [-10, -10, 0, -10, -10, -10, 10, 10, -10], [10, 0, 0, 0, -10, -10, 10, 0, 0], [0, -10, 0, 0, -10, 0, 10, 10, 0], [0, 0, -10, -10, -10, -10, 0, 10, -10], [-10, 0, 0, -10, -10, 0, 10, 0, 10], [-10, 10, 0, -10, -10, 0, -10, -10, 0], [10, 0, -10, -10, -10, -10, -10, 0, -10], [0, 10, 0, 0, -10, -10, 0, 0, 10], [10, 0, -10, 0, -10, -10, 0, 10, 0], [10, 0, 0, -10, -10, 0, 0, 0, 10], [-10, -10, -10, -10, -10, 0, -10, -10, 10], [10, -10, -10, 0, -10, 0, 10, 0, 0], [0, 0, 10, 0, -10, -10, 0, 0, 10], [0, 10, -10, 0, -10, -10, 0, 10, 0], [0, -10, -10, 0, -10, 0, -10, -10, -10], [-10, -10, -10, -10, -10, 0, -10, 10, 0], [-10, -10, 10, 0, -10, 0, 0, 10, 10], [-10, 10, -10, -10, -10, -10, 10, 10, -10], [-10, 0, 0, -10, -10, -10, -10, 0, 10], [0, 0, -10, 10, -10, -10, 0, 10, 0], [10, 0, 0, 0, -10, 0, 0, -10, -10], [-10, -10, -10, -10, -10, 10, 10, 10, 0], [-10, -10, -10, -10, -10, 10, 0, 10, 10], [0, -10, 0, 0, -10, 10, 0, 0, 10], [10, -10, 0, 10, -10, 0, -10, -10, -10], [-10, -10, 0, 10, -10, 0, 10, 0, 0], [0, 0, 0, 0, -10, -10, 10, -10, -10], [0, 10, 0, 0, -10, 0, 0, -10, -10], [0, 0, 10, 0, -10, -10, 0, 0, -10], [-10, -10, -10, 0, -10, 0, 0, -10, -10], [0, -10, -10, -10, -10, -10, -10, 0, -10], [0, -10, -10, 0, -10, -10, 0, 0, -10], [0, -10, 0, 0, -10, 0, 0, 10, 10], [0, -10, 0, 0, -10, 10, 0, 10, 0], [0, 0, -10, 0, -10, -10, 0, -10, -10], [0, -10, -10, -10, -10, -10, -10, 0, 0], [-10, 0, -10, -10, -10, -10, -10, 0, 10], [-10, -10, -10, 0, -10, -10, 10, 0, -10], [0, -10, -10, 0, -10, 0, 10, 0, 0], [0, 0, 0, -10, -10, 10, 0, 0, 0], [-10, 0, -10, -10, -10, -10, 10, 10, -10], [10, -10, -10, 0, -10, -10, -10, -10, 0], [-10, -10, -10, 10, -10, -10, 0, 10, -10], [0, 10, -10, -10, -10, -10, 10, 0, -10], [0, -10, 10, 0, -10, 10, 0, 0, 0], [10, 0, -10, -10, -10, -10, -10, -10, 0], [-10, 10, 0, -10, -10, 0, -10, -10, -10], [0, 0, 0, 0, -10, -10, 10, 0, 10], [10, 10, 0, -10, -10, 0, 0, 0, 0], [0, 0, -10, 0, -10, -10, 0, 0, 10], [0, -10, -10, 0, -10, 10, -10, -10, -10], [0, 0, 0, 0, -10, -10, 10, 10, 0], [-10, 0, -10, -10, -10, -10, 0, 10, -10], [-10, -10, 0, 0, -10, -10, 0, -10, -10], [0, 10, -10, -10, -10, -10, -10, -10, -10], [10, 0, 10, 0, -10, -10, 0, 0, 0], [10, 0, 10, -10, -10, 10, 0, 0, 0], [10, 0, 0, -10, -10, 0, -10, -10, -10], [0, 0, 0, 0, -10, 0, 10, -10, 0], [-10, 0, 0, 10, -10, 0, -10, -10, 0], [0, 0, 10, 0, -10, 0, 0, -10, 0], [0, 0, 0, 10, -10, -10, 0, 0, 10], [0, 0, 0, 0, -10, -10, -10, 10, -10], [0, -10, -10, 0, -10, -10, -10, -10, -10], [10, 0, -10, 0, -10, -10, 0, 0, -10], [0, 0, -10, -10, -10, -10, 10, 0, -10], [-10, 0, 0, -10, -10, 10, 0, 10, 0], [-10, -10, -10, 0, -10, 10, 0, -10, 0], [0, 0, 0, 10, -10, 0, 0, -10, 0], [-10, -10, -10, 0, -10, 0, 10, -10, 0], [0, 0, 0, -10, -10, 0, -10, 0, 0], [-10, -10, -10, 0, -10, -10, 10, -10, -10], [-10, -10, -10, 0, -10, -10, -10, -10, -10], [0, -10, -10, -10, -10, -10, -10, 0, 10], [10, -10, 0, 10, -10, 0, 0, 0, 0], [0, 10, 0, 0, -10, -10, 10, 0, 0], [-10, 0, 10, -10, -10, -10, -10, 10, 0], [-10, -10, -10, 10, -10, 10, 0, -10, 0], [10, 0, 10, 0, -10, 0, -10, -10, 0], [0, 10, 0, -10, -10, 0, -10, 0, 0], [0, 0, 0, -10, -10, 0, 10, 0, 10], [0, 10, 0, -10, -10, 0, 0, 0, 0], [-10, 0, 10, -10, -10, 0, 10, 0, 0], [10, 0, 0, -10, -10, 0, 0, 10, 0], [-10, 10, 0, -10, -10, 0, 0, 0, 10], [0, -10, -10, -10, -10, 0, -10, -10, 0], [0, 10, 10, 0, -10, 0, 0, -10, 0], [-10, 0, 10, -10, -10, 0, 0, 0, 0], [10, 0, 0, 0, -10, 0, 0, -10, 0], [0, 10, 0, -10, -10, 10, 0, 0, 0], [0, 0, 10, -10, -10, 0, -10, 0, 0], [-10, -10, -10, 10, -10, 0, -10, -10, 0], [10, 0, 0, -10, -10, 0, -10, -10, 0], [-10, -10, 0, -10, -10, -10, -10, -10, -10], [-10, 10, -10, -10, -10, -10, -10, -10, -10], [10, 0, 0, -10, -10, 10, 0, 0, 0], [10, 10, 0, 0, -10, -10, 0, 0, 0], [0, 10, 10, 0, -10, -10, 0, 0, 0], [0, 0, 0, 10, -10, 0, 0, -10, -10], [-10, -10, -10, 0, -10, -10, 0, 10, -10], [10, -10, 0, 0, -10, 0, 0, 0, 10], [0, 0, 0, 0, -10, -10, -10, -10, -10], [0, 0, -10, 0, -10, -10, -10, -10, -10], [0, 0, -10, 10, -10, -10, 10, 0, 0], [-10, -10, 0, 0, -10, 0, 10, 0, 0], [-10, -10, 0, 0, -10, 10, 10, 0, 0], [-10, -10, -10, 0, -10, 10, -10, -10, 0], [-10, 10, 10, -10, -10, 0, -10, -10, 0], [-10, -10, -10, -10, -10, 10, -10, -10, 0], [10, -10, -10, 0, -10, 0, 0, 10, 0], [10, 0, -10, -10, -10, -10, 0, 10, -10], [-10, -10, -10, 0, -10, -10, -10, -10, 0], [-10, 0, 0, -10, -10, 10, 0, 0, 0], [0, 0, -10, -10, -10, -10, -10, -10, 0], [0, -10, -10, 10, -10, -10, -10, -10, 0], [0, -10, -10, 0, -10, -10, 0, 10, 0], [0, 10, -10, -10, -10, -10, -10, 0, -10], [-10, -10, 0, 0, -10, -10, -10, -10, -10], [0, 10, -10, -10, -10, -10, 0, 0, -10], [0, 0, -10, 10, -10, -10, 0, -10, -10], [0, -10, -10, -10, -10, -10, -10, 10, -10], [-10, 0, -10, -10, -10, -10, 10, 0, -10], [0, -10, 0, 10, -10, 0, 0, 10, 0], [0, -10, -10, 0, -10, -10, 0, 0, 10], [0, -10, 0, 0, -10, 0, -10, 0, 0], [-10, -10, 10, 0, -10, 0, 0, 0, -10], [-10, 0, -10, -10, -10, -10, -10, 0, -10], [-10, -10, 10, 0, -10, 0, 10, 10, 0], [-10, 10, -10, -10, -10, -10, 10, 0, -10], [10, -10, -10, 0, -10, -10, 0, 0, -10], [0, -10, -10, 10, -10, -10, 0, 10, 0], [0, -10, -10, 0, -10, 10, 0, 0, 0], [-10, -10, -10, -10, -10, -10, 0, 0, -10], [10, 0, 0, 0, -10, -10, 0, 10, 0], [0, -10, -10, 10, -10, 0, 10, 0, 0], [-10, 0, 10, -10, -10, -10, 0, -10, -10], [0, 10, -10, 0, -10, -10, -10, -10, -10], [10, 0, 0, 0, -10, -10, 0, -10, -10], [10, 0, 0, 10, -10, 0, 0, -10, 0], [-10, -10, -10, 10, -10, 0, 10, -10, 0], [0, 10, 10, 0, -10, 0, -10, -10, 0], [10, 10, 0, -10, -10, 0, -10, 0, 0], [0, 10, 10, -10, -10, 0, -10, -10, 0], [0, 0, 10, 0, -10, -10, 10, 0, 0], [-10, -10, -10, 10, -10, 0, 0, -10, 10], [10, 0, 0, 0, -10, 10, 0, -10, -10], [-10, -10, -10, 10, -10, -10, 0, 0, 0], [0, -10, -10, -10, -10, 0, -10, -10, -10], [-10, -10, 0, 10, -10, -10, -10, -10, -10], [-10, -10, -10, 0, -10, 0, -10, -10, 10], [-10, 0, -10, -10, -10, -10, -10, 0, 0], [0, -10, -10, -10, -10, -10, -10, -10, -10], [-10, 10, 10, -10, -10, -10, -10, 0, 0], [0, -10, -10, 0, -10, 0, 0, 0, 10], [-10, 0, 10, -10, -10, 10, 0, 0, 0], [0, -10, 0, 0, -10, 0, 10, 0, 10], [0, 10, 0, 0, -10, 0, 10, -10, 0], [10, 0, 0, -10, -10, 0, -10, 0, 0], [0, -10, 0, 10, -10, 10, 0, 0, 0], [10, -10, 10, 0, -10, 0, -10, -10, -10], [-10, -10, -10, 0, -10, -10, 10, 10, 0], [0, -10, -10, -10, -10, -10, -10, 10, 10], [-10, -10, 10, -10, -10, 0, -10, 10, 0], [-10, -10, 0, -10, -10, 0, -10, 0, 0], [-10, 10, 0, -10, -10, 0, 10, 0, 0], [0, -10, 10, 10, -10, 0, 0, 0, 0], [-10, -10, 10, 0, -10, 10, 10, 0, 0], [-10, -10, -10, -10, -10, 0, 10, 10, 10], [-10, -10, 0, -10, -10, 0, 0, 0, 10], [-10, -10, 0, 0, -10, 10, -10, -10, -10], [-10, -10, 0, 10, -10, 0, 0, 0, 10], [10, 0, 10, -10, -10, 0, 0, 0, 0], [-10, -10, -10, 0, -10, 10, -10, -10, 10], [-10, -10, -10, 10, -10, -10, -10, -10, -10], [-10, -10, -10, 0, -10, 10, 10, -10, 0], [0, 10, 10, -10, -10, 0, 0, 0, 0], [10, 10, 0, -10, -10, 10, -10, 0, 0], [0, 0, 0, 10, -10, -10, 10, 0, 0], [-10, 0, -10, -10, -10, -10, -10, -10, 0], [0, -10, 0, 10, -10, 0, 0, 0, 10], [10, -10, 0, 0, -10, 10, 0, 0, 0], [-10, 10, -10, -10, -10, -10, -10, -10, 0], [0, 10, 0, 0, -10, -10, 0, 10, 0], [10, 0, -10, 0, -10, -10, 10, 0, 0], [-10, 0, 10, -10, -10, -10, -10, 0, 10], [-10, 0, 10, -10, -10, -10, -10, -10, -10], [0, -10, -10, 0, -10, 0, 10, 10, 0], [-10, 0, -10, -10, -10, -10, -10, 10, 10], [-10, -10, 10, -10, -10, 0, 0, -10, -10], [0, 0, 0, 0, -10, -10, 0, 10, 10], [0, 0, -10, 0, -10, -10, 10, 10, 0], [10, 0, 0, 0, -10, -10, 0, 0, 10], [0, -10, 0, 0, -10, 0, -10, -10, 0], [0, -10, 0, -10, -10, 0, 0, 0, 10], [0, 0, 0, -10, -10, 10, -10, -10, -10], [-10, -10, 10, 0, -10, 10, 0, 10, 0], [10, 10, 0, 0, -10, 0, -10, -10, 0], [0, 0, 10, 0, -10, -10, 0, -10, -10], [0, 10, 10, -10, -10, -10, -10, -10, -10], [0, 0, -10, 10, -10, -10, -10, -10, -10], [-10, 0, 0, -10, -10, -10, 0, -10, -10], [0, 0, 10, -10, -10, 0, -10, -10, 0], [0, -10, 0, 0, -10, 10, 10, 0, 0], [-10, 0, -10, -10, -10, -10, -10, -10, -10], [-10, -10, 0, -10, -10, 0, 0, 0, 0], [10, 0, 0, 10, -10, -10, 0, 0, 0], [10, 0, 0, -10, -10, 10, -10, 0, 0], [-10, -10, 10, -10, -10, 0, 0, 0, 0], [-10, -10, 0, -10, -10, -10, -10, 10, -10], [-10, -10, -10, -10, -10, -10, -10, 10, -10], [-10, -10, 10, 0, -10, 10, 0, 0, 10], [10, 0, 0, -10, -10, 10, 10, 0, 0], [-10, 10, 0, -10, -10, 0, 0, 10, 0], [-10, -10, 10, 10, -10, 0, 0, 0, 0], [10, 0, 0, 0, -10, -10, 10, -10, -10], [10, 10, 0, -10, -10, 0, -10, -10, -10], [-10, 10, 10, -10, -10, 0, -10, -10, -10], [-10, -10, 0, -10, -10, 0, -10, 0, 10], [0, -10, 0, 10, -10, 0, 0, 10, 10], [0, -10, 10, 10, -10, 0, -10, -10, -10], [10, -10, 0, 0, -10, 10, 10, 0, 0], [0, 0, 10, -10, -10, 0, -10, -10, -10], [0, 10, 0, -10, -10, 0, -10, -10, -10], [10, 0, 0, 0, -10, 0, 0, -10, 10], [0, 0, 0, 0, -10, 10, -10, -10, 0], [-10, -10, 0, -10, -10, 0, -10, -10, 0], [-10, -10, 0, -10, -10, 10, -10, 0, 0], [0, 0, 0, -10, -10, 0, 0, 10, 10], [0, 0, -10, -10, -10, -10, 10, 10, -10], [10, -10, 0, 0, -10, 0, 0, 10, 0], [0, -10, -10, 10, -10, -10, 0, 0, 0], [0, 0, 0, 0, -10, 10, 0, -10, 0], [0, 0, 10, 0, -10, 0, -10, -10, 0], [-10, 0, 0, -10, -10, 10, 0, 10, 10], [-10, -10, 0, -10, -10, 0, -10, 10, 0], [0, 10, 0, 10, -10, -10, 0, 0, 0], [0, 0, 0, 0, -10, 0, 0, -10, 10], [0, 0, 0, 0, -10, 10, 0, -10, -10], [-10, -10, 0, -10, -10, 10, -10, 0, 10], [-10, 0, 0, -10, -10, 0, 10, 10, 0], [10, -10, 10, 0, -10, 0, 0, 0, 0], [-10, -10, 0, 10, -10, 10, 0, 0, 0], [-10, -10, -10, -10, -10, -10, -10, 0, 0], [0, -10, -10, 0, -10, 0, 10, 0, 10], [0, 10, 0, -10, -10, 10, -10, -10, -10], [0, 0, 10, 0, -10, 0, 0, -10, 10], [0, 0, 0, 0, -10, -10, 0, 0, -10], [-10, -10, 0, -10, -10, 10, -10, 10, 0], [0, 0, 10, 0, -10, 10, 0, -10, 0], [0, -10, -10, 0, -10, 10, 0, 0, 10], [0, 0, 0, 10, -10, 0, 10, -10, 0], [10, 0, 0, 10, -10, 0, -10, -10, 0], [10, 0, 10, 0, -10, -10, 0, 0, -10], [0, 10, 0, 10, -10, -10, 0, -10, -10], [0, -10, -10, 10, -10, 0, -10, -10, -10], [0, 10, 10, -10, -10, 0, -10, 0, 0], [0, 10, 0, 0, -10, 10, -10, -10, 0], [0, 10, 0, 0, -10, 0, 10, -10, 10], [0, 0, 0, 0, -10, -10, -10, 0, 10], [0, 0, 10, 0, -10, -10, 0, 10, -10], [-10, -10, -10, -10, -10, 10, -10, 0, 10], [0, -10, 10, 10, -10, 0, 0, 0, 10], [10, -10, 0, 0, -10, 10, -10, -10, -10], [10, 0, 0, -10, -10, 0, 10, 0, 0], [-10, -10, 0, 10, -10, 0, -10, -10, -10], [-10, -10, -10, -10, -10, 0, -10, 10, 10], [-10, 0, 0, -10, -10, -10, -10, -10, -10], [0, -10, 10, 0, -10, 0, 0, 10, 0], [0, 0, 0, -10, -10, 0, 10, 10, 0], [-10, 0, 0, -10, -10, 0, 0, 10, 10], [-10, -10, 0, 0, -10, 0, 10, 10, 0], [0, -10, -10, -10, -10, -10, -10, 10, 0], [0, -10, -10, 10, -10, 0, 0, 0, 10], [-10, -10, 0, -10, -10, 0, 0, 10, 0], [-10, -10, 0, -10, -10, 0, -10, 10, 10], [0, -10, -10, 0, -10, -10, 10, 0, 10], [0, 0, 0, 10, -10, 0, -10, -10, 0], [0, -10, -10, 0, -10, -10, 0, -10, -10], [0, 0, 10, -10, -10, 10, 0, 0, 0], [0, -10, -10, 0, -10, -10, 10, 0, 0], [0, -10, -10, 0, -10, 10, 0, 10, 0], [-10, -10, 0, 0, -10, 0, 10, 0, 10], [0, 0, -10, 0, -10, -10, 10, 0, 10], [-10, 0, 0, -10, -10, 10, 10, 0, 0], [-10, -10, 10, 0, -10, 0, -10, -10, -10], [-10, -10, 10, 10, -10, 10, 0, 0, 0], [10, 0, 10, -10, -10, 0, -10, -10, -10], [0, 0, 0, -10, -10, 10, 10, 0, 0], [0, 0, 0, 0, -10, 0, -10, -10, 10], [0, 0, 0, -10, -10, -10, -10, -10, -10], [0, -10, -10, 10, -10, -10, 10, 0, 0], [0, -10, 10, 0, -10, 0, 0, 10, 10], [0, 0, 10, -10, -10, 10, -10, -10, -10], [0, 10, -10, -10, -10, -10, -10, -10, 0], [-10, 10, 0, -10, -10, -10, -10, 0, 10], [-10, 10, 0, -10, -10, -10, -10, -10, -10], [-10, -10, 10, 10, -10, 0, -10, -10, -10], [0, 0, 10, -10, -10, 0, 10, 0, 0], [-10, -10, -10, 0, -10, 0, 10, -10, -10], [0, -10, 10, 0, -10, 10, 10, 0, 0], [-10, 0, -10, -10, -10, -10, -10, 10, 0], [10, 10, 0, 0, -10, -10, 0, 10, 0], [10, 0, 0, 10, -10, -10, 0, -10, -10], [10, 10, 0, 0, -10, -10, 0, 0, -10], [0, -10, -10, 0, -10, 10, 10, 0, 0], [-10, 0, 0, -10, -10, -10, -10, 10, -10], [0, 0, 0, -10, -10, 10, 10, 10, 0], [-10, 0, -10, -10, -10, -10, 0, -10, -10], [-10, -10, 0, -10, -10, 10, 0, 0, 0], [0, 0, 10, 0, -10, 0, 10, -10, -10], [0, 0, 0, 0, -10, -10, 0, 10, -10], [10, 0, 10, -10, -10, 0, -10, 0, 0], [-10, 0, 0, 0, -10, 0, -10, -10, 10], [0, 0, 0, 0, -10, 10, 0, -10, 10], [0, 0, 10, 0, -10, 10, -10, -10, 0], [-10, -10, -10, 0, -10, 10, 0, -10, 10], [-10, 0, 0, -10, -10, -10, -10, 10, 10], [0, 0, 10, -10, -10, 0, 10, 10, 0], [-10, -10, 0, 10, -10, 0, 0, 10, 0], [0, 0, 0, 0, -10, -10, 10, 10, -10], [0, -10, -10, 0, -10, -10, 0, 10, 10], [10, 10, 10, -10, -10, 0, -10, 0, 0], [0, 0, 10, 0, -10, 0, 0, -10, -10], [10, 0, 0, 0, -10, 0, 10, -10, -10], [0, 10, 0, 0, -10, -10, 0, 10, -10], [-10, -10, 0, -10, -10, 0, 10, 0, 10], [0, 10, 0, 0, -10, 10, 0, -10, 0], [0, 10, 10, 0, -10, 0, 0, -10, -10], [-10, 0, 10, -10, -10, -10, -10, 0, -10], [-10, -10, 0, 0, -10, 0, -10, -10, -10], [0, -10, 0, 10, -10, 10, -10, -10, -10], [0, 10, 0, -10, -10, 0, 0, 0, 10], [-10, 0, 10, -10, -10, 0, -10, -10, 0], [-10, -10, 10, -10, -10, 10, -10, 0, 0], [0, -10, -10, 10, -10, 0, 0, 10, 0], [-10, 0, 0, -10, -10, 0, -10, -10, 10], [-10, -10, 10, 0, -10, 0, 10, 0, 10], [-10, 0, 10, -10, -10, 10, -10, -10, -10], [-10, -10, -10, -10, -10, -10, 0, 0, 0], [0, 10, -10, -10, -10, -10, 0, 10, -10], [-10, 0, 10, -10, -10, 0, 0, 0, 10], [-10, 0, 10, -10, -10, 0, -10, -10, -10], [0, 0, 0, -10, -10, 10, 0, 10, 0], [0, 0, 10, -10, -10, 0, 0, 10, 0], [-10, -10, -10, 10, -10, -10, -10, -10, 0], [-10, -10, -10, 10, -10, -10, 0, -10, -10], [-10, -10, 0, 0, -10, 0, 10, 10, 10], [0, -10, 10, 0, -10, 10, -10, -10, -10], [0, 10, 10, 0, -10, -10,